0.38197066384066725,0.309942120975748,-0.24767623243187753,0.24309351283952463,0.14304212502314095,0.006205370475463101,-0.4871982709282685,-0.12123770090439245,0.050077793291890105,0.10863369122227617,0.04470298704875786,-0.21491060177610544,0.13548275069708016,0.09597387709055136,-0.040827284495024485,0.05648671004809691,0.06179854432139076,0.015840267502018945,0.2891430583109017,-0.050147411289784616,0.11294266897832705,-0.41750031233186624,-0.32812224692869885,0.18514119837051557,0.43902382431644393,-0.17483139847259244,0.06463915955747657,-0.15580273314890014,-0.325986899392696,-0.4683024988596781,0.17171950563979832,-0.15282289364151347,-0.3629991240079461,0.4510491511765785,-0.43431184581350935,0.2615510959873807,0.38406994234641645,0.05106534775411814,0.1719378640881635,-0.0037410732784954742,-0.45954802772735903,0.4699800314043529,0.10808196894401707,-0.1951184197817906,-0.11633514231961314,0.2102289621209805,0.44342387981916215,0.222995456472311,-0.4920267135707733,-0.48244235184433953,-0.010047947750702184,0.40748888292609486,-0.3505551043792159,-0.42567091254100076,-0.11750403555941924,-0.3988122948104432,0.381085540406471,0.4782948522878312,-0.17125444249594324,-0.3931812057134352,0.2386916202026254,-0.3359218388601988,-0.17781068949734677,0.21207278473862867,0.43423997544470266,-0.02416326579200585,0.1283613085098548,-0.5157884750389891,0.3700033580463165,-0.13509715573473952,-0.3049304036307394,0.11563637949474563,0.08617385039944986,0.08511313484236842,-0.27747204001772446,-0.14261233403744444,-0.3365841531069991,0.30259671782608255,0.42282369438024503,-0.059703832983733586,0.09178114030350651,0.3311530821892995,-0.027279468937399076,0.12889890685289407,0.2562040831032003,-0.4975578342017266,0.24872886778702985,0.11250186858521637,-0.22399948154525115,0.4753771997735027,-0.4112157251861083,0.1426385307063527,0.11646093573045505,-0.007325604992562923,-0.23198766129729984,-0.1341775990158073,0.27124075512681556,-0.08226064063639302,-0.39739014977344084,0.3333891947367566,-0.503775527884394,0.19908619258133545,0.3997282489468386,-0.2609435844995001,-0.0017056528628923945,-0.33042970574795855,-0.45834075536646723,-0.129181757350365,0.48915728740359776,-0.0008749800216318708,-0.4194511059294128,0.016874201357402807,0.40407176901130326,0.4680631925739207,0.10101101835658444,0.18829186941354573,-0.34227946999325054,-0.24123904786170894,0.42889343706630517,-0.2019348371825721,-0.14659539351273085,0.06409366499416957,0.323702714401724,-0.44877079885027776,-0.23773051143459323,-0.3591865267997298,0.06731834538684671,-0.3458217710238755,0.20117729417307875,0.08069716120364855,-0.3719358159004017,0.3870799742157723,-0.29633055090852545,-0.24640658366807722,-0.4603472332619493,-0.1773615594546321,-0.2434499968768468,0.4349459088062224,0.2964734320996033,0.28403208042618233,-0.14224593518181572,0.49370848676262324,0.26100308086378454,0.0884253157000177,0.2589702408298801,0.007299429093277228,-0.24323435372508828,0.24235186708296652,-0.03256309164337455,-0.4525244996554054,-0.010330986428715645,0.21900463033319795,0.1375378642167364,0.2954659229879407,-0.05419528459865827,0.0007548888464331218,0.5501586398309414,0.24400753509952883,0.4594212633833012,0.10022579272039014,-0.219243298958281,0.07696732156176178,0.22419617878526582,-0.4412569000383351,0.21875190598061522,-0.028374791361182816,0.4404730709552682,0.3983975109593394,-0.2627075372404617,-0.15131888558218343,0.13425243480306767,0.0001402247800643775,0.22220772061521102,0.3874342186288965,0.3316619002695575,0.10979055729740946,0.46375130895590144,-0.2907989875612984,-0.45576701694144073,-0.12347568064204287,-0.0061915295468901186,-0.24637073733650558,0.19961823708107512,0.042616790003844274,0.17094221578520583,0.4881141788278419,-0.15696364109962907,0.05204101604831482,0.3468733240921578,-0.22071800422318372,-0.03778032005568698,0.2791784865662156,0.19031565348517254,-0.017575554693637467,0.4211743341215371,-0.2238885584277874,0.2566928830725923,-0.26628716616477704,-0.48666325950424744,0.2889371767694027,-0.2673149696559726,0.25276365944733853,0.14010464683141924,0.18174347974181385,0.22418941493476086,0.24932627337670035,0.3217634509516708,-0.3724179577894478,0.37179479264254234,-0.2270701267319827,0.4854406637918047,0.2958281839233734,0.4655947549026449,0.15704566494150143,0.6490179370524812,0.6417207101090584,0.17145770298603225,-0.1947554865880538,0.2285166595585016,0.07660565913103398,0.41892333498000617,0.4736385352172386,0.06439667538117023,-0.11507744064453371,0.3280278257750948,0.3049156307621841,0.12893293804800374,-0.15781371395146923,0.03947512393922613,-0.18203140445861057,-0.24882709360597793,0.33036808940507756,0.3638889801124342,-0.2755873330445456,0.24786434754080788,0.2306770412269404,-0.26950568556351157,0.050300793374816535,-0.20661038438400767,-0.11623434151197423,0.4943474687432287,-0.05921008441803374,0.24007190550223442,0.6042476863033032,0.06959589553897966,0.05888964015407765,-0.3820602463116985,0.036411919390191234,-0.23644369745405336,0.02609984047576551,-0.4792525902975097,0.4316700708294869,0.1487688115391942,0.3031516057735632,0.21191096386305852,0.14580152582886083,0.32166217045770384,-0.05439751985826436,0.23275557463949537,-0.1951706969708657,0.3702431379375245,0.12282624450992163,-0.1627177472875778,-0.35351311984281747,-0.45494749608130886,0.19411287074953645,0.20503225129281674,0.17764453677938452,0.024994294146053985,0.34935492416711517,0.26259447324399654,0.28446378002641143,-0.33998792464143457,-0.24299989275236503,-0.07701832853080172,-0.23753725152043814,0.31944812210121426,0.4611240220194546,0.33176313332662577,-0.18361744392111193,-0.13659539103885865,-0.28382982974586546,0.13812730802772596,0.3197151786323306,-0.32401287833325326,0.17960026245285798,-0.5130043295659433,0.1325175818369525,-0.3402777941189228,-0.08513207574038435,-0.058827325238373904,0.4688501360423073,0.21492278709569143,0.2372164481198123,-0.23899395321241157,-0.31563511723505844,-0.10580567719091577,0.21242337660421443,0.19421537444319292,0.4572071412282268,-0.008282365587380635,0.10531405639964024,0.15032085227968148,0.06787625787055006,-0.3415175061165231,-0.1061544437631955,0.0390332301497397,0.27545076080951436,0.2327946220810242,0.48005871160779257,0.25376066721230844,0.2493947349645424,-0.0901070508436145,-0.22254862895573665,0.3369702904248175,0.06166587438235562,0.26311363331237553,-0.39182008726932077,0.2321761941193775,-0.16240549909733873,0.1418384847203566,0.05470073275202922,0.5504290472786699,0.39688505928859297,0.3336221945137037,0.2542791549865623,0.3343818339760316,0.028986359321424984,0.16685664978803272,0.07683607041083698,0.2953064773277747,0.36568665923746857,0.08329704079070452,0.4729529306616184,-0.4315391630518092,0.24536040717898064,0.46506119070439444,-0.3913422609627179,0.245565169503462,-0.3476095687719953,-0.3238218277325237,0.22699185611462416,-0.2764371870889653,-0.1429429276857038,-0.009071928897558437,-0.12625317318073653,0.3646590684624452,0.2839390457786232,-0.07868994198147013,0.2505552768507057,-0.2605681380303315,-0.12372982252839014,-0.12039833958739035,-0.06557556575386067,-0.4372731991593596,0.0735069125291913,-0.4090868996122781,-0.23712888396521742,0.27494443492844006,0.31220251137103716,-0.46395155309740016,-0.4753211411062078,0.26341718245643364,-0.10016187311018358,0.026346808265975297,-0.3860449213066714,0.46955221527834656,0.1373794821860983,-0.4083638595179781,-0.0164235625939133,-0.42296825798439247,-0.19084419621367193,0.03496092263667602,0.38027274753160284,0.35475459509769064,0.15066999334784079,0.30372781077637545,-0.3647770713696685,0.1064595794891935,0.10790028149977561,-0.16220690630108475,-0.24851918446311716,-0.44804068351836973,-0.21985121529433607,-0.028564180693545913,0.2762442882291879,0.1387033134123822,-0.21345192334003507,-0.49892708266077235,0.40154331416668704,-0.31478183640221113,-0.36398725782444386,-0.40664960249281235,0.4856334880928589,0.2571821352736129,-0.41956570139539784,0.08084463638923861,0.2625129665725359,-0.12781564111573002,-0.10969941130695236,0.17703004299146072,-0.07236813753375619,-0.2097695485022153,-0.22131650822390506,-0.21184397737184352,-0.09916672083081478,-0.09007145502442147,0.26999954267563303,-0.252104406159,0.411075645399059,0.30794993011328925,0.21368163342738888,0.001714434627639854,-0.2234707332518711,-0.5727904000151838,-0.028867633572431384,0.15144458055870047,-0.4901004537120585,0.18325071179491204,-0.4422994530256845,-0.35717252965473,0.3265965191596336,0.19500265410818085,-0.07395488028531375,0.4367204260844403,0.2509754422048352,0.05099675168806432,-0.3596840313318256,-0.3216037002573972,0.41325614848995734,0.12462701141262979,-0.6132027946298594,0.08443008214602132,-0.0917448357877606,0.21879849513124994,0.30995101145119797,-0.2955086018544424,0.4341277014278807,-0.03961147529077241,-0.24232899209131162,-0.5812734049946416,-0.053463965212297675,-0.6069908593098351,-0.1857046225021292,0.3377196247200925,0.1742878576872219,0.36090855621257545,-0.24398352803779078,-0.0959885632200318,0.19453913170851456,0.07941467599094193,0.3231540943622306,0.08497524534736785,0.1521366475887745,-0.02079584547110119,-0.16263334675315375,-0.14053250040393195,-0.4511640001711083,0.1795095285718643,-0.10018641086335187,0.4537976095414182,0.06556218837417842,-0.33307937717092306,-0.020132404842497013,0.390191952361308,-0.12608309287374284,-0.011573086088348342,-0.5810128570957146,0.015139161963193573,-0.15102862556374902,-0.26947291515614913,-0.22879605391866198,-0.32248575913425925,0.19597806960997166,0.3116090011311495,0.28983181771164634,-0.16984980153984186,0.17863153851031577,0.18698769559324896,-0.23522152517808384,-0.11228686662084854,-0.19217953788379566,-0.03425914119835064,0.2879042299957941,0.04570136744210611,0.317199680285767,-0.2217506274633904,-0.26931452755343943,-0.33571147789880257,0.5499094110964385,-0.42758964259071325,0.08855498062973347,-0.21730495464910615,0.05980121544488185,-0.09985923341032565,-0.3445314367714396,-0.22056985260903544,-0.04566659886063729,-0.1482207907133842,-0.5288825906325129,-0.41922967319168913,-0.42045449659043316,-0.45309163298725136,-0.02318050553086918,0.3320605226192379,-0.43707527536453256,-0.4582281400426982,0.2920412863962035,-0.5178107957295052,0.3588134858860103,0.1446690897653439,-0.4833997930678374,-0.37875333794906285,0.18034073385559335,0.3112235824028494,0.09048941049580632,-0.24033854271524607,-0.2417031724706131,-0.22354838636960417,0.08775044283852454,-0.3707452089492392,-0.35750759817952593,0.12863111876102823,-0.48624574182090674,0.06364611456943667,0.18917501220472704,0.38355377513262123,0.0644944242188159,-0.1216028056844731,-0.38419631317867564,-0.4901296902628166,-0.14640370870230332,-0.37650092721872486,-0.16705336964094494,0.4046496182064122,0.06385592285043408,0.028390871575272782,-0.20056928109559807,-0.017094661529430646,0.3063470224491504,0.31838371376744745,0.08391859382462398,-0.1697959715237355,-0.3849883786526787,-0.3514204618142391,-0.4122324271780787,-0.13731365315221253,-0.5482611484889148,-0.477608669943352,-0.3212240698856571,-0.03975105042704474,0.38756202563355,-0.22361251970169474,0.3647189773831825,0.0213813068433722,-0.014036159590142379,0.5032748476789747,0.37951370352483765,0.16856771815104266,-0.010421628524719478,-0.21333266165268194,0.3192492879233634,-0.12508371348025882,0.425782872241946,-0.1092254572171905,0.06409075583500372,0.24578571980652272,0.4147932551635824,0.06324124922927,-0.3262058042059059,0.22876790206446432,-0.463292642915972,-0.3539533939133632,-0.6504675227924089,-0.3435510406515594,0.012815895789366729,0.1589580911938743,0.2176803074449184,-0.39027180780999743,0.45854272524155615,0.25450008292156856,0.24479550879894788,0.13614245233819489,0.3808613470409826,0.322862574899628,-0.009798744071606691,0.21766218431137443,0.49653563312922666,0.16638691620249818,0.360435648734893,0.18601881770168005,0.4329035506992629,-0.23581200659006302,-0.31461379123482,0.30849968661945637,0.5704435888310927,-0.11826340150578762,-0.36734868765111856,0.16101683453762786,-0.34218524052148963,0.23392561137743553,-0.201299660611798,0.2588386344374346,-0.08273765529147846,0.25780335385123176,0.34422964111595505,0.094043381602329,-0.1414620259644072,-0.26510006312178314,0.11565727716590349,-0.10128760065419219,-0.4106789286970587,-0.3958558152700374,0.30998620131547505,0.2451986397280317,0.23528473789757842,0.3879350930293215,0.3532140887216191,-0.09398347068578311,-0.22753791140071453,0.04204543763122647,0.09337013381689038,-0.06166380413122949,0.04291859304255358,-0.3033792177735351,0.05062593186791284,0.049547416966544224,-0.25895489050991866,-0.27422102305753304,-0.011392658037794382,-0.017228591460619946,-0.06347926816291104,0.34927392918062733,-0.07582683211650215,0.3433228507480649,0.2786982585181509,0.3053708889082477,0.06860192062479396,0.06821047731011927,0.42788909433388067,0.21779598602508726,-0.18889872323303739,0.13277884600470724,-0.35842812155432635,-0.22942700509554603,0.4385509953521043,-0.07711127634070579,0.22375919534451677,0.04082770909249351,-0.1864581139513107,-0.3891354819081136,0.3161999434431791,0.2754560481268734,0.22728847582067876,-0.25361743897870515,0.2605717801603306,0.6903308589460735,0.42127351687008524,0.5772551643883932,0.2517904477027701,-0.03348078809847468,0.18885839011064873,0.3881182132630984,0.25115963871315494,0.4941164671157581,-0.27169344438819676,0.04964722076823544,0.40059305202929896,-0.31586631419434363,-0.408844361447997,-0.4290784686566248,0.05160309443641442,0.2255903329625384,-0.32885871708548575,-0.10284823469585731,0.4399773205480516,-0.3401668267618917,-0.12226317144851873,0.0442820689757959,0.24647921728021666,0.3479783802273208,-0.4135796216360776,0.06551117751221465,0.3103870569063799,-0.31111466039226043,-0.3126673181315443,0.2364410219987344,-0.21049549350449168,-0.011343151170562728,-0.27704911914983404,-0.07811946567010801,0.26863117792377855,0.196358288162421,-0.41664395023431755,0.43938235689858807,0.19925731985269857,-0.3326736576801311,0.4296439146475493,-0.2577000251307099,-0.09774527482543394,0.34994149056671875,0.4247195230098433,-0.08830784999929236,-0.21751010928201087,-0.3850669821858821,-0.20758934212286406,0.4446963864674278,0.37975135702374374,-0.021138660446786504,0.35396437273237613,0.1741295228528796,0.04069975122181757,0.1021254960533167,0.18770431715053482,0.3038048208825244,-0.34691276360627066,-0.17739151831308236,0.35272538310321816,0.4203715189701204,-0.28136338472908073,-0.4095705218795282,0.22878640403732936,-0.417894128804288,-0.19521974164363673,0.18858351613087862,-0.029945538080679346,0.07630119739074614,-0.2798926739125219,-0.19384208627819266,-0.3991932855858522,0.09165562816633632,-0.3564738285483222,-0.2659327711816303,0.09682129681844573,-0.3464741616371586,0.37047982989575384,-0.4011339276187236,0.13956167254943885,0.03791340117074177,0.09928520028624313,-0.2659555347422357,-0.1329807408501568,-0.34644115343121723,-0.38060424422578926,0.013851814772915715,-0.2984223149986144,-0.3455212009894985,0.3808037343676603,0.40885397517693584,0.19314404760779036,0.3045015240500952,-0.09879741481309842,0.4145968836134952,0.3650672725064652,-0.26142530551960064,-0.18574471747557775,0.030599686734330667,-0.37614902238830206,0.4622669369621065,0.05512131953922972,0.14517372827156108,-0.11270341891329928,-0.4185073658621844,0.48761168415346423,-0.1992207489324955,-0.20080108309426314,-0.12661677914845507,0.11041646951883063,0.13776068990758034,-0.4775877348844777,0.40341759543344213,-0.18682779378689213,-0.04420661652728373,0.4317394803388594,0.3525199126280053,-0.3043160824422492,0.3037947048996893,-0.18095651563379322,-0.08133162623457602,-0.44988022339289657,-0.00842302141856388,-0.3291599232197141,0.43843758753781426,-0.41489325006506994,0.44330357134469645,-0.34239190842733536,0.30253446300732456,-0.43307813985738586,-0.3627257453996052,-0.10609415221074292,0.0901150113223288,0.4896110196021669,0.17649021415015442,-0.07943003216618338,-0.09057014588469992,-0.2740649030730109,-0.1140111174215438,0.3301931815556258,0.4070684779039455,-0.30535906924731104,0.044834230628765126,-0.43724012807462376,-0.4836529543944331,-0.07490169440104222,0.33963625279816023,-0.4718522866617868,-0.1757476360085638,-0.2241937028078671,-0.04835118632657165,-0.2077706365694002,-0.10725526006827169,0.26234561769075415,-0.22319596043662115,-0.464387078858729,-0.09154023046556392,0.40738020924066165,0.019282205690220766,0.37522942897442413,-0.39892106247687437,0.4360422913279168,0.04800623707432696,-0.4960947695921209,-0.3660365994480717,0.2790316454004663,-0.09507642639858022,0.003313352366354877,-0.26345331915172343,0.06688419423388678,0.09778401535298842,0.28725982962177227,0.0005234356307646361,-0.021418795148276305,-0.4866196718871166,-0.46506945554753193,0.21155667819881707,-0.2165818704898227,0.33546380730747993,0.15379475121148312,-0.3924591405665053,-0.23647234964497466,0.4251964232632315,-0.49457357834871296,-0.15800677235289196,0.430723285510871,-0.029867466042109388,-0.4209158867550373,-0.2664020569755547,0.103743927004884,0.4415253710246639,-0.49796912191306725,0.20290534597923954,-0.2049052517833098,0.14827759858026038,0.22675615880121913,-0.29039970527415593,0.19145320103294133,-0.5364303261824754,-0.13213950091786045,-0.33429464391936903,0.22119879544293522,-0.11640896988105523,-0.4372589059979072,-0.4652010438320824,0.1289917927293976,0.49718244494402913,-0.12493096054002434,-0.19007259407743116,0.3907843690059225,0.04796464480574769,0.2790498929353349,-0.2801151768117609,-0.024813670607393982,-0.49898857879863967,0.049372288652421985,0.04538618849171031,-0.27987417785370833,-0.08528337923996349,0.09327648810825999,-0.23428937991533172,-0.39353066060363595,-0.18896225296619695,0.15721205323418525,0.09589197599205809,-0.5351874900280629,0.143580803702827,-0.4323948951496291,0.06829975335633026,-0.4108946052935816,-0.21344232886612083,0.3888873897615709,-0.32684087858269845,0.16126646956037438,-0.058482776017366324,0.24176228226526708,0.32908617304267146,0.46265294590755734,-0.27981705475519114,0.0012620237320259964,-0.25142235349044406,-0.3026468165891734,0.043339274523210465,0.4588367267175648,0.024962744561098357,0.47000597668820876,-0.3858469273549559,0.5161303133792466,-0.30307269887734223,-0.02190903227864937,0.5933505542158575,0.43580029682733956,0.4451510320288226,-0.2716175594740625,0.26648386520969125,0.2061514117085779,-0.2609942704765091,-0.14054994409941976,-0.4289113750116589,-0.5224938999757568,-0.18501458830876896,-0.055441272472334796,-0.19693036633062808,-0.26155204954712646,0.33267200737040276,-0.31649855004120186,-0.2589835598105984,0.28749737467010794,-0.21975001347707265,-0.3783353267592541,0.3132321333780896,0.046631629248021826,-0.382701437113058,0.11269165494424188,-0.3290016371358274,0.5331585147280798,-0.21306431221701252,-0.010666092961844594,0.3454461656347905,-0.14126975709424605,-0.3096727142804909,0.18091465677219098,0.07838853650189963,0.3439196132363501,-0.30527775980141963,-0.3768312031899547,0.1982270829459346,-0.42201180362474455,0.14633461308423482,-0.036189400296650756,-0.3899455506933491,-0.08931192179666951,-4.6376760834090016e-05,-0.37512389510386884,-0.18053021236927203,-0.4897569400327205,-0.1703015340997378,0.35554230653496544,-0.37851097301663855,0.4594973861335124,0.23229359169629188,-0.13378771576756954,-0.0378741298230943,0.3001253011317925,0.3561582113162557,0.33480412847885355,0.5838742196884894,0.258805871373402,0.29494776215295376,-0.0994619095482243,0.14623938909041903,-0.47096373656826535,-0.26502317654176927,-0.42423987256176215,-0.3214322334800394,-0.023038205750345847,0.23969038865187328,-0.2561860076169738,-0.3130282372707252,-0.13078261835829458,-0.412779340574175,0.09671803152357757,-0.020236231560747275,0.23192443067031757,0.13126895255159618,-0.18936169370958209,-0.36019461796303376,0.27902380102827745,0.337507168240287,0.1173100335280411,-0.0029121828317404544,-0.2698518923304907,-0.13428896556688655,-0.1496775449273997,-0.25464773038085053,-0.09443074280135072,-0.05184090105030185,-0.0024505338578851227,-0.0031964022815750533,0.018291146632147523,0.21477770241766878,0.28248686045364724,0.061498609353571786,0.40988826530683126,0.3649491768987485,-0.011883635858124438,0.052546766103552564,-0.2705962384465491,0.15922384856085844,0.07628537072105525,-0.499976550362464,-0.299625393144441,-0.06580426909985497,-0.47076038761439987,0.3408398115789511,-0.27886419589469713,-0.39719062538723887,0.4716062040535652,-0.2301190824794442,0.21238668574373545,-0.13125442583967264,-0.07344764871828761,-0.19147449460606247,-0.020949740877810815,0.007264580754425402,0.3710082118552612,-0.14150330732418723,0.5210533736268108,-0.21024028502232897,-0.03224940179554539,0.2430854084306316,0.5125727611964721,0.5071818841000711,0.5128882104330547,0.43796959472699076,0.17572031981503153,0.08920304948504276,0.4513695729852761,0.42607494061976947,0.14537380234804667,0.3196961317623658,0.1870527078789137,0.27554319702734315,-0.20211373118299478,-0.4420537451989568,0.2834475045465894,0.14996742546322314,-0.4882400209626593,0.3577663885021866,-0.2227174596483045,0.3031710009098051,0.23717485782456085,0.2092362145017275,0.3077150837074724,0.2070052305506892,0.43345700688098504,0.34642978285675047,0.19269610433831744,-0.15636939905734049,0.4057347058654017,-0.13396767343531324,0.5188901097464524,-0.18203905646603077,0.38141613535305513,-0.31500664167431947,0.4599113987492184,0.226137618975852,-0.3796718400460446,-0.03727851078597342,0.04334320855902788,0.22816856513245717,-0.2404378981787937,0.003965447196525116,-0.1553170721067644,0.2627579369540837,0.2759604698685796,-0.3961666322186139,0.13920847482272014,-0.12854188702211822,-0.46016033847362,-0.25055724229515364,-0.13814526363448296,0.21053217570242333,0.4766376046279543,0.6685905236552585,0.2824996073888338,-0.23937780594894711,-0.27917927084769517,0.1479969087734525,0.5509346726006789,-0.2055299507501971,0.09708929760301578,0.15309613286403045,-0.4058402799940002,0.22896197042379696,0.09899324563785626,0.456538702734701,-0.07800830953995652,0.09770572035479004,-0.21301683539870192,0.2187926986825098,-0.43279459190744024,-0.29887793247830535,-0.1200733839685178,-0.4437766935849615,0.11612311182131907,-0.3078123456971523,-0.5193536590610235,-0.11647035838092462,-0.19205952427058584,-0.007528448907995607,0.11047722070613225,0.31246268869780003,-0.2529524035012638,0.18441235888247762,-0.28818652998531785,-0.28381534823810467,0.5050700008981639,0.10766849726564329,-0.09409709373335004,0.30464139704546445,-0.33114977958485586,0.2954455906383251,0.27619356989922667,0.44538537492005326,0.26966765291747335,-0.40981944480654564,-0.3448577514862568,-0.0752034080156134,0.3730216982999837,0.4551713006669644,-0.5921797333302796,-0.18869116655082716,0.11854962416326009,0.07276687106276171,-0.146649592552555,0.09793940468726424,-0.57959791927148,-0.6479414976283024,-0.41908773419181944,0.04417410283045954,0.04176510918920708,0.26962727870302405,-0.31441050368062445,-0.3794323548492836,0.4189941810157117,0.2383442310559642,-0.06174837390945184,-0.066733941149093,0.27996065513674306,0.271867372165585,-0.06501072703285532,0.11021559720920183,0.05106607402688863,-0.010356774678771118,-0.11819504219159929,0.13596438957383794,0.31278187847894434,-0.3438285135255726,-0.4591764601236964,-0.2552656142221259,-0.35104419116955704,-0.4701095309816326,-0.5133566601894175,0.05322815842735114,-0.08993835976824123,0.14119838756618414,0.2796613025178408,-0.27900032207868125,-0.007125687326061825,-0.13463880249992316,0.19303635559719112,0.3670862929467145,-0.4061703058972216,0.07232833663951448,0.10061192905150171,-0.38031565269561884,-0.4868064169655638,-0.4729964584671872,-0.16302101027771806,0.3294579020405838,0.4470179486386816,0.43759396967788994,0.0650880096824446,0.474173289450377,0.12598996989475142,0.17392309102210604,0.37232647747237946,-0.10960188741989338,-0.5872386365403677,-0.3396799841362058,-0.19936334101081293,0.24959626123589918,-0.5388683226686467,0.2060458344096493,-0.26205663089236697,0.07306128603732485,-0.42121669777899085,-0.21845106941263356,-0.1833772841320231,-0.26027195806151693,-0.12988812806005035,0.15259231331871517,-0.3238876762837998,0.22689849233366122,-0.44945927127799806,0.38324529617864334,0.11819443840805832,0.0815713291876403,-0.1969557942298728,-0.3216439596405157,0.4413167405647751,0.5141371389665147,0.6915141842570685,-0.2872995188461578,-0.42649745207787365,0.32587714402649176,0.3967605835514859,-0.07388900205719637,0.3340756775782971,-0.16451498045940224,-0.19798629587466854,0.3323436388538114,-0.09518585014268445,-0.0029901004423365063,-0.019147794130148024,-0.13978612547547556,-0.2677569384365502,0.08926070805181821,0.3633545993994764,0.47495803645047463,0.3596021023919884,-0.2373703327590086,-0.3715825550478347,-0.23915878233291965,-0.4582735633995948,-0.20852234715253976,-0.09770073867632775,0.04596794418484026,0.47773399240247044,0.15018202910497372,0.6763573215903956,0.4608949779872487,0.3876015135737824,0.19820492617372704,0.3332144874815404,0.03682616957560142,-0.15410822363229976,0.214535997007313,-0.29622005314020533,-0.3434280163616429,0.26000157017811326,-0.14883151172633866,-0.5086760532994951,0.014489650492700222,0.29999943725693223,-0.21683208485112243,-0.039445913661605346,-0.09045191598252855,-0.12748257509577055,-0.37332603365437,0.4588451660475701,0.16117696561107897,0.18014188940598,0.12373497147961386,-0.2311011366820252,0.19776810994887076,-0.08043468176875423,-0.1846676662452542,0.08544708258580362,-0.242393114274013,0.2991539631691819,-0.06764413560720084,0.12210350801010494,-0.08934451524934935,0.15894771580763686,0.5383283584754531,0.09825129819127215,-0.3620365512649465,-0.3713059618647088,0.3431689796728401,-0.33098108616537836,0.20976094469301235,0.008113484662212655,-0.36927503897951364,0.48787129927089407,0.282684290931953,-0.052473654833948925,0.4408331940379192,0.28679640223493086,0.30807809428072574,-0.10592562601512444,-0.29488065794691126,-0.38400834774037573,0.0938108051679213,-0.2940823867513917,-0.018564837535802514,0.4106100660612088,-0.11890466234883601,-0.27274962836670263,-0.18191499060474262,0.19894542747100036,0.4384388055080076,0.17154316947135106,-0.19596080077811937,0.028054175806949747,-0.2185442187126336,-0.10794479504270338,-0.3185740226767079,0.3369716668517173,0.35438781692030946,-0.28891543527047836,0.16337109067954494,0.17075605467039298,0.4574408184381802,0.461011794430035,-0.0787672580104556,0.4792055491576027,0.21923861078368986,0.12079468150969912,0.3754954021494471,0.06235559169716933,-0.36129655030302993,0.02750017015392311,-0.15942859012102267,0.640179469410919,0.19978082976308845,0.428530645295879,-0.008886845731184659,-0.13666297907756225,-0.0864852026457227,0.28828100639850973,0.3263319225276232,0.19989997002083895,0.6268548124349457,0.18539782992256135,0.17062700511673462,-0.19588698898997298,-0.3304586916898026,-0.07330345890005488,-0.2061730908962019,0.5718471204747982,0.1888790851718732,-0.21633713269546298,-0.4459623629353542,0.20696338815972204,-0.4627193786206748,-0.4815689009469372,-0.15831692585329077,0.04078390316288189,-0.4366860356603746,-0.07147170034196129,0.36926382133834396,0.5955329914562775,0.3589949164728017,-0.12871181435628684,0.4724218981077345,0.2805786420809225,0.16658475730790145,-0.005222996061815044,0.03420157285263032,0.4629038975238759,-0.3021373173980873,0.3079134799717683,-0.1214638019128927,-0.3324658953318186,-0.16447304705763396,0.26180110203444257,0.39142389251663096,-0.217770574287963,-0.2610490605757857,-0.2260717760106402,0.25691832708847,0.41964525147129716,0.01666960473736112,-0.4756158586629029,0.4523652546613973,0.11785999818130907,0.16889091420529576,-0.03131954932327357,0.48901869410373444,0.005288364990506058,0.2677179158677417,-0.27014568578497417,0.1317936178867434,0.12727060723696873,-0.3257860323521765,0.2253203041848811,-0.29696420161479686,-0.2388461836196237,-0.2877635265420786,0.4708643249121974,0.16258616638244078,0.4257651950839496,0.4879710811936683,-0.10921143529680741,0.4573388856476194,0.26981228680029545,0.5233955682582105,0.459473727998556,0.3557650718270516,0.0162505232230008,0.4237642711675038,0.029883698785445088,0.49046713450798013,0.3240405647289942,-0.07581962873941764,0.33851951822035586,-0.37929043267732543,-0.3436502287945725,0.16382452811534096,-0.2805734256751447,0.03703729326253862,-0.19080033491066617,-0.4295788133069954,0.007725417056987606,-0.07238559959712026,-0.019936308902343537,0.2563793327679157,-0.36497633592349854,0.6285722418042596,0.1250170865149757,-0.0033792568229300433,-0.00667668636792018,0.06746898410744238,-0.36474281986641516,0.5093269746527516,0.05887083259221264,0.44171303905345133,-0.26882003210280203,-0.2865345754428006,-0.07300524781411433,0.44084763517783704,0.3624847001986758,-0.02231038950484333,0.030793317810935833,-0.3458304697972745,-0.039117427613592215,-0.23426555224799417,-0.3678988837803224,-0.055297359987928556,0.19494434663780902,-0.33667779189128594,-0.42731907883553627,0.03390824908900845,-0.4283091446433879,-0.23231488468560083,0.05411284212692004,0.21484905402967588,-0.04560571300643603,-0.1320796036121652,-0.11598093556188435,0.4929646311980499,0.022139294418615337,-0.004190673748801095,-0.40165680993131,0.18658815653641422,-0.026931618743417984,-0.4266553958061201,-0.02196537315746616,-0.3368840366272153,-0.2381599365944542,-0.30329092998475715,-0.012379669404201358,0.3239947379680019,-0.4144587656834861,-0.3213346464014146,-0.56216900133106,0.11455881072133492,-0.603233444624902,-0.6229331522414528,-0.38700939946633445,-0.21608914940572888,0.18214134093513526,0.19870652183561605,0.0896881979269311,-0.15175717199111366,-0.08408784912762869,0.4394195182149264,0.2852637644870037,-0.1667287881016797,0.3666610517163201,0.47114366311606465,-0.13483785648683322,0.3617463095082774,-0.3909691574262689,-0.102640112374206,-0.21114376104350696,-0.40081749439582626,-0.44346895816503146,0.20405867220835847,0.16502663907545442,-0.32650691351122196,-0.17044309314408984,-0.2639038505426083,-0.2719251343462732,0.2324997434489051,-0.09408334290819392,-0.5122997400503567,0.23295608000323642,-0.2294260901389806,0.1934548219538145,-0.2380109018956561,-0.3110700937978272,-0.15590996072669674,0.08547962945570045,-0.2521349785540477,0.31850617624761207,0.20667437600700667,0.17880717324405218,-0.2921168083888333,0.22953039036772205,0.3948073936127816,0.15421787776972462,-0.1680516169775811,0.24138915022580543,0.12298424696707588,0.4611411550375567,0.3107543377251218,0.36217995533283265,-0.047144158940189466,0.4034905666159315,0.1510048885210072,-0.4336844105603789,0.06589308749107196,-0.3087946754034642,0.49265779266211746,0.4140810233867325,0.19427147824177168,-0.057921942573957885,0.09822331347260832,0.29110007717228487,0.331792005069614,0.29552106862138605,0.13505700607103194,0.35966725498172814,-0.29187396473325117,-0.09515635220894221,0.18494411668827943,0.10580581816423885,0.37399791368696944,-0.3681631245263608,-0.1485690621719027,0.02903526201376294,-0.47773490586936607,-0.39737616214268245,0.04436065317401325,0.016974000922055324,-0.23527869382121602,-0.33164822405012406,-0.15464573393344203,-0.3362959193676839,0.1964071295878391,0.4556316651982487,-0.42810029432381347,0.45344380699898235,-0.4673837769126313,-0.042092211329796556,-0.0006364787633601882,-0.4720717902071442,-0.4909896057423623,-0.00964455512143623,0.16699603695976575,0.4607780348197396,-0.09508848192870924,0.33670719097215807,0.41812416777012995,0.4855126420897611,0.2627443666405185,0.24698111541620127,0.3380661405324721,-0.04147157941169599,0.284582864341706,-0.3916365535340781,-0.3089713757892949,-0.1515154023880999,0.046744069266287824,0.3477655539852803,0.4181748107516936,0.45036222934722603,-0.1254366074604697,-0.07163150619135672,-0.4219212523103526,-0.09946865928452253,0.289027476941362,0.18073654280179907,0.17125573488834922,-0.18309267536988416,0.23872599666472538,0.3711660588759844,0.4801966041132719,-0.14429442682802074,0.03859965003117449,-0.4210702373054179,-0.10226481308534707,-0.08277476589295252,-0.3157984110551645,-0.19298758227276291,-0.1200382590735698,-0.19665739580752428,0.4807136359656864,-0.06631845351082022,0.009549281394377052,0.3269481469835488,-0.37563014252237714,-0.39120688245804824,0.1388338289662071,0.4455211629981808,0.04336709377332981,-0.2317919118251902,-0.3708012301302923,-0.019924902273211753,0.3926245370192992,-0.326986276674714,-0.21264352025712385,0.356263758276281,0.2667772377236248,0.376942104764995,0.370285268696134,0.16078457232714588,-0.25497697397122476,0.4115365910830415,-0.44356333750637156,-0.009205990132108322,0.12026663840444307,-0.25797549321493485,0.1830848595580291,0.3090423555418451,0.03294301705035385,0.24817759148080254,-0.3299049398026359,-0.22858432973861353,0.4087230128102056,0.1696433432476485,-0.3992117059780053,0.03986510478723021,0.18300938566450167,0.05450513044942174,0.2975988816027792,-0.44054811867068494,-0.2388857354305468,-0.3908948067270709,0.3782524243947624,-0.11864466282351878,0.25460049720059097,-0.12379161008916134,-0.19118559570647037,0.0906888805796717,-0.2572143571725831,-0.10846261861958573,-0.00707063506356842,-0.10277485813498544,0.27525590111694564,-0.26685786783106413,-0.44090256307921216,-0.17622302226651831,-0.13876835403264343,0.41198827213998457,-0.022096210850354958,-0.2968515924227605,0.17148560611182095,0.13246613038148833,0.07178335946528198,0.04910637260783088,0.003237964502024997,-0.4061713571542788,0.15839034502112395,0.014935626143294583,0.000991988798456222,-0.4542794673682845,0.42976761972180855,-0.4823196941015774,-0.1982384055758498,0.17186754933666615,0.36101286752972217,-0.19105330577457003,0.22013518048250202,0.0818911268324003,-0.44768543598234,-0.17066961291913474,-0.2899845855396521,-0.361067561465239,-0.15859321876352495,-0.0746396923470074,0.43938642151085006,0.01855244767861397,0.1055833834274239,0.40754548334831875,-0.06387905249409098,-0.2857046967894838,-0.33745385638058734,-0.1957949937915547,0.23853005542488206,-0.479101828035784,0.17184232498292568,-0.1332105727850945,0.013834070501862765,-0.12502000204610417,-0.23776893219658535,-0.4910781013836407,0.4551014346684033,-0.37477434531994125,-0.3861069652756562,0.2532727588554762,0.30596800075390446,-0.09626526079187561,-0.4746475245622118,0.30427779822729906,0.47214549213204704,0.104050425719314,0.28052506368569674,0.081150273843699,0.015685301957442332,0.46963058758360476,0.4187733505503757,0.13973938068039182,-0.35106052948597805,-0.23736153105062327,-0.1713081259800021,0.37296410379474854,0.29197841492438714,-0.0379780462307691,0.14277420960635406,-0.15840800719267994,-0.23974639123669558,-0.3601386136980256,-0.5240295219921596,-0.20305316942400786,-0.44147691016903684,-0.2349231970346741,0.35171362830986896,-0.1603349273154257,-0.361525986245452,0.1691115814257904,-0.337918103635815,0.4227325696167842,0.0731317866970621,0.023749938452493957,0.2951991428086077,0.23863254704681047,-0.45367535224740596,-0.4529178655046665,-0.4201490276252136,-0.45517621398658487,-0.2065737184552729,-0.13601175075393013,-0.36891805737159905,-0.34747934392632707,-0.5001721660015009,-0.45204126326352084,0.21841834639350544,0.20364465321689668,-0.004097697571903967,0.3671316863320029,-0.2943944209773814,-0.13645845855095065,-0.28171635508917076,-0.43060794434744215,0.2951767887266194,0.4003281064845643,-0.18857296859505404,-0.3273608340901734,-0.02196473893787061,-0.2859725977326768,-0.14166475693693895,0.3541524037096784,-0.2306918938721101,0.3116580863189861,-0.3412295288006148,0.4209385738444715,-0.3698464575859312,0.21903535442812663,-0.3299458370285223,0.36413977341582077,0.3554671436824228,-0.1948857820503925,0.33998589112814037,-0.12735404700811465,-0.28590649859763456,0.12881496707863901,0.05205022153225893,0.36931076187472694,0.046619630788528606,0.43001022347553886,-0.2245840194519327,-0.39012577224129713,-0.4856722030268035,-0.10843826676267879,0.49341363128294696,0.23183836512308062,0.3483127827488583,0.18680423226026127,0.34097528239323355,-0.38913800766065143,-0.03882133327605686,0.059832692722673865,0.2978538819609117,0.04320558278361308,0.2998940208949018,-0.4807436506400385,0.06609115226167196,0.48418628796854823,0.414399595316044,-0.20751451724636516,-0.3419548743459707,0.27183265046009436,-0.4092859226342485,-0.4982524670746701,-0.26304203078683136,-0.0004438856266899717,-0.09326055813559705,-0.23170102851032778,-0.2580489983295599,0.2454889113761784,-0.1970164078996926,0.4115424331938337,-0.31551864294162474,0.02967719183892715,-0.44283035659826175,0.2891098587610293,0.19549883976472524,0.032266577079614,-0.03762871904821796,0.4011460352771756,-0.4069039346140525,-0.2124222694704457,-0.33927067185905774,0.36207661247356443,0.3906726652012026,-0.28848676543749996,-0.45174064709048567,0.13568764751369025,-0.2698930080408369,0.03172386634829991,-0.47738851249592396,0.23771183528885462,0.40297863623408847,-0.31584028964220984,-0.09447403433354287,-0.3802884754507074,-0.2340993918792566,-0.20479839574537145,0.09358054849048257,-0.2768410385665617,-0.287782994776223,-0.21820727667377451,0.3845170130509478,-0.13920910327479527,-0.31674285774030886,-0.2600542077512078,-0.05935766182687363,0.48739008773795567,-0.4532770859152736,-0.05663873125758106,0.19084471412430473,0.1148910222025388,-0.40144379633382726,0.453617975346756,-0.512095259800766,0.15702519001579984,0.1707894339656339,-0.20102693688718748,-0.3396957615234916,0.13050019992165512,-0.4748294226026496,0.2233760788463551,0.3501065771630211,-0.138101293392362,-0.013444132563100498,0.516805196792531,-0.43528088969727374,-0.2871231133413765,-0.4606439084450014,0.35595623061120757,0.44381057916314043,-0.06828046492395135,0.06690818201887339,0.3354769599331815,0.19868205165973118,-0.2170373354309847,0.22936365018340957,0.3537092807767094,-0.3353358394012658,-0.005564229744861241,-0.04212269689084609,-0.14834068592353386,0.023672858420450072,0.46751192913187883,-0.33978943634612535,0.18590801835259546,0.30565595554134595,-0.031288377398735065,-0.5104601341691043,0.1694927511235214,-0.511463507740871,-0.10192295989731945,0.21021121057471975,0.343174470449007,-0.4020838686241251,-0.4206375144915099,0.33896737934444987,-0.03656520816348899,-0.12292546991405334,-0.472656143331351,-0.3584611275049189,0.1849216954468118,0.4464653187917915,0.05250614471867765,0.16269880077644927,0.4967797735880589,-0.061191080473139654,-0.020507908799832684,-0.0034883453409565975,0.06617131746644465,-0.40016401215049513,-0.33094232253174044,-0.37274632994331164,-0.47363668305946943,0.33828734929066184,-0.21832795943629243,0.3751703317501558,0.32620100445029104,-0.443911383233971,0.03836350097600737,-0.3292969624317814,0.31210611143882644,0.2661815652409001,0.054705345840277746,-0.3438679551487656,0.13245617413356076,-0.040224287553402044,-0.08317926873207337,-0.2472850380734719,-0.24055265183949504,-0.08168658027827538,0.14458401245544572,-0.18010318463816222,-0.07797226311561205,-0.19908196362119243,-0.15432878685952123,0.3857839200004827,0.12029148454253967,0.4126237235787689,0.501370720474467,-0.1417087411017365,0.3410729158235166,-0.2363770766361455,-0.4121386669648553,0.058794525800630104,0.32543469485307075,0.11768049009612025,-0.36541012340584517,0.27398147406158435,-0.44797989674451794,-0.04769312500990543,0.4799545034121968,0.15323281259380175,0.014298671751339479,0.11993429357833198,-0.26014078002693924,0.12418302221156922,-0.21302034832781858,-0.47549673810635673,-0.07705666856958815,-0.30171682344977124,0.2859336994383931,-0.3299800147063186,-0.40311297135030033,0.19942850457330755,-0.32468294743610043,-0.4216983429177511,-0.16732250531926965,-0.32099953499750106,-0.32440896564146404,0.38443788405415025,-0.38520799903741765,-0.4272294684842192,0.43194749660611254,-0.35249334961771916,0.1475156219268902,-0.2207159290022135,-0.24877465678977118,-0.41978195945715924,-0.12711622446022003,0.15625460849335013,0.5108763523052492,-0.1001151023536174,-0.32019020869737563,0.3819061176982512,-0.4898615692899647,-0.14393575710008233,-0.17564121689212508,0.0911796349286963,-0.4075563964304856,0.434207255179534,-0.3760879069776882,0.05725887747210353,0.3807211970961507,0.010206899897517678,0.4742975379805891,0.33026168264960415,0.3923800321392201,0.021989847835568694,-0.23343412657027837,0.15841473489119534,0.004797710589748947,-0.39294531256692955,-0.15488460524990597,0.14179982612163886,0.401860859801227,0.2610709647391628,0.025833545483143528,0.19243200889735462,-0.3989352319317689,0.2653367460843678,-0.11601661049539908,0.0910617951474384,-0.4651666570835843,-0.42817945237801724,0.42613071976336225,-0.02144439206797566,-0.05833096619386946,-0.20272681063084905,0.10048880088033622,-0.4961662838083661,0.03663634773814406,-0.5122960917513995,0.015942170804359765,0.3156806028679856,-0.4527813391181792,-0.2764682567564969,-0.21532924441785528,-0.43104575406870005,-0.20597319452658736,-0.5201549382358003,0.047866928578875284,0.1608851822609119,-0.17410664919287458,0.36113035315314623,-0.35757690641602236,-0.1108672620529409,0.17857656422921403,0.2281236436425672,-0.2823991745771553,-0.004198038591694693,0.1704772596347669,0.008266433382822735,-0.14072469123188136,-0.3138606267238512,-0.2361102024806646,-0.004295931197033982,-0.113216989163163,-0.2385804494038445,-0.35880739158871017,0.10586538945435553,-0.41123757028645475,0.4347330982277287,-0.29605997206313917,0.04034490845575529,0.08007386900346553,0.2579735212496243,0.15360746395079225,0.036336069249239496,-0.26418042612293396,-0.14720657260530945,-0.35066793314366285,-0.16274167707262258,0.045815010671093594,-0.4734404658088585,0.17070208702422796,0.042265500999389596,0.028492070546288325,-0.05467905199395348,0.3291119642419828,0.20322495716843736,0.021780016714942563,0.11993509272642922,0.11624531864773724,0.3431259546057198,-0.3855744480873484,0.19353681253327373,0.19378773400868177,-0.3858743511808412,-0.4903296016756246,-0.28895077587907314,-0.38336289403173734,-0.049587189710219595,-0.08811723385258365,-0.379568333321883,-0.4712556071486245,0.4012518098919102,0.33364751628403627,-0.0153510604602448,-0.13987302534988091,-0.30294409260535127,0.3953792490173075,0.2857865762855512,0.040032043303258505,0.47651029582500887,0.07714000542939739,0.2256567471887575,0.2458608259420458,0.1414418110917205,-0.4909850441677259,-0.22018892870702345,-0.46913392512170426,-0.14025595590208184,-0.05205830619299956,-0.46116100929335685,-0.014878168156927874,-0.1257872162466162,0.1398855127425924,-0.4990499338108224,-0.5067667035563234,-0.24503776106564812,-0.020372615452416677,0.34490805018795284,-0.15364793580984806,0.09379283971337044,0.39313136305011065,-0.2823364098351552,0.3584875578394395,-0.418306121035879,0.3035662316349087,0.3239841341745299,-0.07729184714308926,0.18430729914984098,0.4492968197264945,-0.47454257667750627,0.08492241823239276,-0.413822011381757,-0.2986771002191645,-0.15871489510547598,-0.3525553747221054,-0.18222730827696743,0.06511597429475693,0.15003105939348305,0.09473209610533079,-0.014114073842907065,-0.1677060426363805,-0.016730688764115233,0.2558487519680285,0.05749293175991416,0.19613723928230442,0.05878029330555907,-0.33720946915130184,-0.30996889089958973,-0.08323649580010652,-0.4625097818836874,-0.19739541040095104,-0.13484012644641508,-0.2828250583006049,0.2915129002315783,0.007041559536359607,0.3396650468873748,0.048192057654708166,-0.11696755587363525,-0.3693547955999167,-0.3098146569329401,0.3756645230123766,0.21133634401583223,-0.34535048964591064,0.0309279504109603,-0.04587847847191313,-0.3552624448373288,0.4617865959131199,-0.23926999313454658,-0.09425843681124206,-0.31731194505089133,-0.12273742445966662,-0.11323562390808181,-0.10035059774405772,0.197246189643673,0.19763302571937355,-0.2091025119016505,-0.21851737825711143,0.08966956306288298,-0.17735277484797626,0.016213711606996146,0.16115708485705837,-0.16674542832884706,0.11903655108049857,0.046084645291372274,0.475704321364563,0.22189730373284655,0.2952455347799159,0.4705665119550849,0.15008310586943951,-0.46739660125497307,0.12377057856023904,0.2304587618086676,-0.2071962045944203,-0.1499254992366264,-0.11328589035332995,0.16055159858652643,0.11374749049864108,0.21117510084161206,-0.5181280418191875,-0.32931509705574086,-0.29725034116929056,-0.5540199448287778,-0.3305339840406232,0.45673304062962006,0.25165049940087547,-0.2680696505594813,-0.18517578089197861,0.42568323471438824,-0.3574626867214689,-0.060876713903812836,-0.4534906971829596,-0.31851603193966527,-0.37446480141461846,0.16676397307161006,0.04850259568448889,0.3296698538392008,0.22595186304635306,-0.48586150512692095,0.19637734629985665,0.10256992330523394,0.445956684148802,-0.2994623539530291,-0.2626702197002767,0.146402984043356,0.027343452351702116,0.22254488021948415,0.4143181940924879,0.05660891677694384,0.020239560133137997,-0.45599320579231717,-0.31087670400063305,0.4581606124495068,-0.4010329864477177,0.44868682339642124,0.33457814264896624,-0.17205443844433796,0.21651283470764013,-0.28410597120407427,0.02154274130387267,-0.3433985648934173,0.4808176427744153,-0.3098530065819117,-0.1812672529801458,-0.3069599982646113,-0.09816740541059343,0.134874563779451,-0.343328060362149,0.3018654948030094,0.4894870747904973,-0.35289557031950547,0.20843110536270562,-0.21207720463411886,0.24972018187697081,0.42916737794801724,-0.36255664540762644,0.05684329446340339,-0.10526699346971673,-0.4367609574129481,-0.39743871719045076,0.35683868453216505,-0.3848164270795504,-0.15324219288891372,-0.1925612953284106,0.3494645309058032,0.42757484942249485,-0.27572038843621927,-0.2022659358892882,-0.25311340854317177,0.03715865801886742,0.422481842679468,0.21182221403104895,-0.46512797590757093,-0.026974775656998906,0.13147402228475125,-0.2184121621449352,-0.45925408474227747,0.1946634343616782,-0.19708466265961855,0.1483854624722094,0.029037651849150123,-0.45381456097548367,-0.30122471628525477,-0.40030454902544776,0.13955258994539482,-0.30813397185271096,0.09803174163509337,0.40067922404596173,0.2794434130352236,0.2490070313304354,-0.4640878345313154,0.3990659066820519,-0.21084731934906092,0.02705922678913471,-0.08330820677358304,-0.331544072608846,-0.07278472594195429,-0.18123296957332136,-0.45523825520200356,-0.22208193218143935,-0.19492745150949886,0.15989423386460777,0.1411415284353581,0.22436558394998918,-0.1774333097176134,0.04942543712515468,0.07592043339032806,0.10022899059379177,0.3261803912460683,-0.2280425186000658,0.22544014646366078,0.41535379613510437,0.28711940832106914,-0.06361396195556566,0.38383620624007336,-0.36190239091812704,0.08060838056105174,0.13355461895897114,-0.10746257911268092,-0.2153835832589006,0.46519253229072477,0.31728292212942266,-0.007198224612997017,0.025417495318848737,-0.3798977465432035,0.06013838296615015,-0.1928898874311188,-0.27876094144448915,-0.37096095931088335,0.42364059962027445,-0.3841896256875018,-0.1893366147473815,0.2421630781008498,-0.02224632118570591,0.23774579110037652,0.0471538327625487,0.3835321002435821,0.20023943917055542,0.33254142776834095,0.06427454988988002,0.21687983687136547,-0.2284760485189361,-0.3750084558879423,-0.13910452751803587,0.2983070019162706,-0.39098664236518316,-0.496138186433284,-0.1915647427309778,0.1948955419919145,-0.46503457908006685,-0.40520336625906006,0.25674015283809826,0.16706776403358858,0.026846212718300122,-0.14839103914375695,0.4837873499484425,0.008550121637460273,-0.22589984266530783,-0.02988322808791488,-0.42109897187794276,0.48642361156945146,0.36485569937448825,-0.1376393618663755,0.3959871093023676,-0.29206215719099804,0.20378797947138116,0.19502138582870188,-0.39599454790461197,-0.07153804422212473,0.315063907211088,0.36136226637981306,0.2881199777607668,-0.4356735393651806,-0.11039659504599497,-0.3432684052002557,-0.4111820499205783,-0.2717537159956819,-0.2790286597680448,0.1401927545252255,-0.2510879144569803,0.018292965598489475,0.08486424325707642,-0.2941162949103231,-0.2790053783601205,0.35548298914221277,0.2777115658985506,-0.2770956955800026,0.3515983667241529,-0.4372333850461888,0.26951608726007503,-0.3221426284030717,0.027953999508230888,-0.24358892566982343,0.42419534200115727,0.32422646675857725,-0.08867389197040847,-0.17728919393530276,-0.491923223382135,0.3191644481515488,-0.43575468865341416,0.4663930703821436,0.4271372331585495,-0.4058065894154077,-0.4467663681713604,-0.3301858035025277,0.46638782239610554,0.09343471082462385,0.12558413654298428,0.2988607412191504,0.3546544214339824,-0.29385413296233354,0.28988813224612164,0.3693810761716493,-0.38672476387022126,0.37316514488351193,-0.30413664421408027,0.24762396445780954,-0.026013562169941492,0.2770775462789016,0.2094295348008916,0.4056058670550861,0.14721685118172795,-0.015470376119544707,-0.19455474242167045,-0.17842406831634147,0.4729819324194202,-0.4211832958316384,-0.03463291035691653,-0.056181109400046246,0.48521431153400857,0.4509146976533869,-0.3193199808068109,0.30672706160655516,-0.0867137396731326,-0.35205702815541945,-0.10592682521253376,-0.3985043357904719,0.08420306581812621,0.3341872310803342,-0.26503779933299476,-0.3808500092041669,0.48750026560906157,-0.09736005671458303,-0.3621091958962984,0.20670854969988017,-0.36906552540817594,0.15583980895199162,0.46433826353657676,-0.07947600515456356,-0.4083614014356775,-0.3984970061917228,0.033709594473712336,-0.2628279007488077,0.4006046229705571,-0.14376063982899007,0.06734741988496606,0.07168926566680235,0.5281876241738043,0.43562956966557725,-0.13113050686709415,-0.033741517211828796,0.11420158959351681,-0.40858908059139054,0.43839300510151674,-0.162737449871586,0.30860759209444655,0.3016483458972295,0.1585424737146649,0.317370555588525,-0.09317915558542944,-0.3344680726569914,-0.10402761991941886,0.27319436491796495,-0.3500111055592948,-0.13433291788307974,-0.36868870707904633,0.4577461055054048,0.0556091008935145,0.48454511441400483,-0.382111107414283,-0.17066412685872004,0.14542564701183644,0.06624292521126435,0.12697013134336513,-0.4005806178277958,-0.2202865793408013,-0.23318139413615072,0.08726290957558941,0.1995855021194882,-0.2335556255301247,-0.2148847831335946,0.4051572262169567,-0.3339537029529824,-0.3608688799617299,0.10998716137214797,0.17120542445819986,0.3209142031664687,-0.09303041045960248,-0.3168219661125578,-0.4792294478749344,-0.3391262817297348,0.12477861803931994,0.30322411308023967,0.3272022883275174,0.05020192709448162,-0.04875225864469974,-0.2706897966546022,0.27880085629304985,-0.31266910000187953,-0.16066949821189558,0.09394141273435579,0.1809239540580593,0.1645185707100975,0.050590280505721,0.1405902674893272,0.4223191499133779,0.19391850260602422,0.4831458219333621,-0.0934990382439251,0.4424757450719763,0.09914761300186657,0.2276007886680862,-0.4131972771804364,0.47151416046663336,-0.06423098217213707,-0.32194340078431616,-0.4688708507754177,0.34530936000357465,0.1753435787359547,0.3201933981549185,-0.05830106076046612,-0.06944994434608025,-0.3677565663749976,0.38230704637738644,0.42681304204182713,-0.21944051707347378,0.2665257993255749,-0.4145199486654501,-0.16472961920132978,0.06055150600412624,0.4531824077488836,0.03948981893525018,-0.049128483649582666,-0.3112282480975993,-0.3289416050551219,0.056516148274184434,-0.20502785895977627,0.07784639305667157,0.02778163186095143,-0.2011100302460106,0.42950369265762284,-0.4550346605698297,-0.019364626497175297,0.26745918910705213,0.05923701646135223,0.18134085905708955,0.18868314141996417,-0.47659721370505115,-0.018845819986124047,0.25337048533665135,0.2253161694497234,-0.18995817799822415,-0.3481842002518464,-0.12604551889464727,-0.16772079989740515,0.01897903469078767,-0.3542176536149281,0.007934269353445404,0.2610539814027317,0.030006748311698084,-0.43237246495244347,0.3849963613644266,0.3026647459892247,-0.0854478866198072,-0.40691474082722096,-0.28890114636036324,-0.41034722999896567,0.26557026542589307,0.3250038271226318,0.13208118148609496,-0.03980347129545536,0.4044891502714351,-0.08216290327862252,-0.28713463160987734,0.28050757121726344,0.07024810329729506,-0.2265752443061617,-0.4456283766241376,-0.339716540104924,0.37206050034922433,-0.05197288771184313,-0.13452457596610448,0.33160743367354045,0.34425078405957077,0.40958391437390057,0.1525082101859722,-0.05701142617629752,-0.3663124287701713,0.3331404808173398,-0.37219762793056943,0.14275642085208515,-0.373511188305557,-0.3927366162427557,0.11367439250144727,-0.33137795036272666,-0.31274090687484585,-0.022974423222413436,-0.3351361598535706,-0.45839391589835715,-0.2868813973273412,0.06535881984956922,-0.1032693703567983,-0.3837935238504567,-0.08650529949326197,0.3267787386396233,-0.4660752962031991,0.08351333064820017,-0.1263089129413899,-0.1645018411524119,0.542220145506603,0.10979565135859913,0.2338625152791034,0.01460995203348689,-0.014933626280800187,0.44313952428756553,-0.4524912131242608,-0.30201880469431824,-0.5410088032203648,-0.37310825741591347,0.27014649578718064,-0.32347178958835976,0.46072553998226307,-0.17190611268083728,0.49548200323846636,-0.3027926533324714,0.21039818685714803,-0.2876934762410867,0.2762599779923866,0.2648621604093841,-0.3666282332402334,0.2520648287616775,-0.012233179764867338,-0.025233750127786697,0.24655450268445384,0.4707438215951071,-0.3640397659835343,-0.4484441105367352,-0.1776386075690903,-0.22331967986945933,0.2612935929905693,0.3079613183082575,-0.3552284384557261,0.244952627775552,-0.08548404465248682,0.044428920547401364,0.0884775837472083,-0.20630258333014498,0.3137967792626426,-0.015719185237671456,-0.06511151283476063,-0.12992839698544323,0.45746744240750553,-0.11965704417639186,-0.11849937290370126,-0.343945951567245,-0.49886377284425737,0.2972840872517479,-0.3113337012156041,-0.11933443994844027,0.39764924905425597,-0.2808386950486102,-0.32391672560219914,-0.004970277849298423,0.2630067946313896,0.46801852204623706,0.13002509616181096,-0.06250848612618408,0.2775928676599631,-0.5976338391293154,0.1149235677445382,-0.31869403123739176,0.3412824989520068,0.22245761096138397,-0.44284204547814027,0.39737353570458533,0.37714776183261434,-0.403555372671329,-0.1021328516297569,-0.3684259831009401,-0.3259614188074669,-0.12739591494364733,0.3761382975231575,-0.49520437222806346,-0.41748866113392097,-0.30081965391712934,0.3776729141412996,0.08101829360534703,0.0743551568487361,0.1382394729900204,0.5015940210274765,-0.38801514057017056,-0.18179440274001366,-0.10514670172459764,0.07658559663950801,-0.38431638921249917,-0.058769345056436634,-0.6924621512488477,-0.6152070937821383,0.13838820486565578,0.2817824780135364,-0.4663013649638915,-0.0048321517062753,0.13545854194592089,-0.06228621982206593,-0.2652689826014508,-0.20433765562442283,0.43637179182867514,0.01962192574790142,-0.12006902126390465,0.3113637893592896,-0.0014089382549674623,0.48998307508402256,-0.20424495734364911,-0.16778130352473014,-0.08737290556697645,-0.37294023382544217,0.06229088474067858,-0.10912116775845469,-0.173629312077267,0.5573872691892746,0.5741636610159506,0.3400013923732317,-0.4171332071885644,-0.6462295979887237,-0.11496245609037019,0.037710427013545704,-0.7681421804670575,-0.5081942888048021,-0.2658212690281888,-0.09711639791024822,0.14636531974327804,-0.17526926290331274,0.11302385762351677,-0.274552864354908,-0.21448888865026966,0.07382041242407439,0.052556936435868874,-0.35953093143180437,-0.40654633477622326,-0.3175056722535111,0.14701013900498633,-0.40027646659533683,0.09979390304910422,-0.3465156286706686,0.3146855813452764,-0.18182714157312377,-0.0818427349805573,0.40503530959917317,-0.21932886468634205,-0.06278813026977727,-0.19064128371262648,-0.4372429905227382,-0.6102598180289269,-0.23410055958626333,-0.3345048299081939,-0.2021372650538883,-0.11776944535336573,-0.3606979042255885,-0.1363456404116904,0.27494804431113234,0.5277374930168383,-0.18802710700067404,-0.36997868802323736,0.2872417060093512,-0.01206325784111626,0.12706172036376495,-0.026493145730000695,-0.3371213311526823,0.008494581037317355,-0.32056279847808833,0.459437922838993,-0.10943885691122938,0.33266511125427217,0.22636023893071774,0.3696474022184625,-0.2924505951133554,-0.18065753384234667,-0.23301657472163373,-0.5558284217004922,-0.11905067421165279,0.06407344742465951,-0.6721143822824697,-0.40057220342926464,-0.5632929232220169,-0.40287550520264287,0.27678800341933774,-0.17386696455177997,0.5036011754139792,0.14384239859934952,-0.21608465196829785,0.03241615567232632,-0.2352899064361728,-0.004313689224090873,0.4088096675055697,-0.3344175443474967,-0.4372435613081488,0.04507789286245924,0.3185080307519992,-0.23158224601349514,-0.4298582096776606,-0.17276921567118314,0.23947545718268348,0.1596579780186731,0.2912427396134471,0.09329715121900778,0.36130178991548206,0.08171115074483101,-0.2230918840862777,-0.5216701245086339,-0.01162285201441979,-0.1769352262682949,-0.022690625371746025,-0.38083456724368925,-0.08752899223425271,0.31117618992643625,-0.2622826963346891,-0.3575887349387456,-0.09479808331329405,0.19138854487269297,0.5050116123020467,-0.25579926927547775,0.32047247962140296,-0.1560642043211936,-0.21890906757335854,0.1502036118480512,0.2429336515356657,-0.058385615558150146,-0.14381673143587972,-0.03641510088100658,0.16627589081900843,-0.273804652275879,0.3137210697824734,-0.10816251769374824,-0.15088954651382336,-0.5771770478925196,0.17736517103947166,-0.5143152743643753,-0.09552967965596194,0.2371064017967003,-0.14358074439719673,0.0021258577002972057,0.06251349494417664,-0.34701152359803883,0.5625981912754962,0.5027367169725098,0.26324831733817544,-0.05758607418927379,-0.4047203638616887,-0.4108881261455356,0.3867985904075601,0.26277351606652555,-0.32044821779572963,-0.21498096377208528,-0.16244486175599163,0.4654456141425241,-0.4431311227953061,0.43068740837126285,-0.38917849184246545,-0.06785859672479153,0.3275695416229315,-0.15639383062663043,0.01576603756966697,-0.03868986252966249,-0.07169751703791206,0.001939691163413247,-0.3148238149894451,0.5957060670879077,0.6006463191769644,0.29215690144964873,0.43559320924023914,0.38056298967045965,-0.3679035014130114,0.489108234691983,0.2504964681773977,0.05316650756530322,-0.0704326352690676,-0.3353159971291496,0.1750947274102621,0.12741755826776613,-0.23720846841035623,0.29886374636928315,0.3470349948386174,0.2588230328965074,-0.27397034924892893,0.28431981480806234,0.09570089644243433,0.1909557576553099,0.17872060639303952,0.14306833078976275,-0.2655679964800341,0.24560761696752326,-0.47965105027016897,-0.16827953037596077,-0.38997349579369645,-0.16280624345438385,0.4205729574457657,-0.3487903951606288,-0.010817515309264846,0.17289287417672403,0.18879767763225802,0.4547337634774754,0.29579484973309955,-0.3331798463806591,0.5034029530149899,0.15269758707145284,-0.49695282440875277,0.10319435983081493,0.25867633588475947,-0.3743226089612352,0.1357686908377002,-0.05688721085975385,0.1597861885024472,0.4090671702092019,-0.03440714281975895,-0.018804387381604497,-0.35474362854013386,0.13997965737693682,0.4248153535759188,0.07241452810290863,0.49286175777096575,0.17948043593831417,0.23803164944341063,0.45156210225263593,0.44995180370711685,0.04113135831258097,0.41787749994934037,-0.19977983507068542,0.14179349942404154,0.16955672880975978,-0.19603317365622278,-0.16385971073681574,-0.13051673568483033,0.43395576449081336,-0.12860100666636032,-0.0755982834511486,0.010021566461330442,-0.3597678257984163,0.34513731584627044,0.34442030298783555,0.029489521601783936,0.14333203581936452,0.07838001753140654,-0.4444781815065852,0.29576929261333934,0.07929085849780401,0.2328932296023351,0.31350087900855683,-0.2212038784864028,-0.3401963859996901,0.5904685560198973,0.5249101137857883,0.4703431620471997,-0.021814258867002997,0.43173200648426796,0.33364940639669527,-0.31903559854995334,0.413193506431722,0.4539168913426629,0.34242172166933704,-0.0442138677869411,0.2881416926002196,0.19030054707091004,-0.44523609791433927,0.2813344734900919,-0.3471574396384337,0.21341634668528278,-0.4151658559054469,0.3664876237411024,0.12009882930591852,-0.44663702083114115,-0.011952992727396423,-0.3573027023701709,-0.09209622973219367,-0.22643184542545988,-0.2962391298457966,-0.20132557287351685,0.5094098692363566,-0.21260093194637106,0.4201735630743764,0.04411044502337986,0.338207967593745,0.22485327630194615,0.39013220368761614,0.3576623188231884,-0.43609160637146416,0.41385764113279644,0.3724251723005324,-0.46805318633246246,-0.4516817185128093,-0.07000175026953381,0.33984529455820034,0.056949352154708976,0.32322035733878324,0.21341775127219043,0.10801952436337457,-0.2979389220306275,0.17228107035609908,-0.49827764532106233,-0.2976324599575137,-0.19969242205426513,0.35765625006324875,0.37257264075398105,-0.10380575439082444,0.06744597686766844,0.11667061163211331,0.17861153304114247,-0.08580303390559774,0.11057681552807043,-0.37159633520233604,0.03034338956148274,-0.5438124942589101,0.03879437719219737,0.45487442842853265,0.1453278881549972,0.21842206265938394,-0.2788395218557518,0.4752296617871202,-0.24555924125156514,-0.42524108044208564,0.4213337688783424,0.13097108636936117,-0.339903872415409,0.4939868908179284,-0.026096600082644365,-0.22428939750117668,0.07601321070419292,0.17327115750640373,0.11734384226101821,-0.3916186569821265,-0.21752466406853696,0.11990641438259675,0.06919330415982759,-0.41284334187580474,0.050180890190905575,-0.20894016883371327,-0.14978892989506354,-0.113390310101211,-0.20687524527841583,0.056135858348520695,0.30240479346439303,-0.20215048859560994,0.1779528211846083,0.4365002424020769,-0.29420111984426994,-0.24551127901758418,-0.04175698993807875,0.24354121209703505,-0.24475539974249516,-0.07313453629239718,-0.30617790093524944,0.1685620176123714,0.4751396162733732,-0.04827471131645449,0.3542425782691816,-0.000500699830624261,-0.17293604579642793,-0.4149184383951582,-0.34850842885142885,0.49559156003572974,0.04886973939324962,0.3843457158109874,0.36206050166068937,-0.1325998542167959,0.14486779689109403,-0.18158871753736316,0.11631875059332195,0.45859544405763863,0.20951597945157724,0.38819616896299836,0.08856806559614243,0.41339060224744484,-0.0046824129385582,-0.17375650460989045,0.39385521726923556,0.21487394941322058,0.4358921275314501,0.2006462854661356,-0.33016522042013163,0.055038862769727456,-0.2851874376222444,0.25413826350369134,0.23810267847289976,-0.13907881057303528,-0.14437653257522062,-0.2350951209472889,-0.19708111135697345,0.45532524677413694,-0.13039554731147615,0.41799173000316475,-0.48667050216534663,-0.18542788667978677,-0.37310746098016534,0.11086370109183412,0.2977138430962445,-0.29783953545859604,-0.34581760160886243,0.02509243794386391,0.39484173434726577,-0.41580744008726306,0.12027152063787472,0.15112944567667963,-0.4377624904870737,-0.30419740110694415,0.4839772724480036,-0.2617117082801057,-0.2653062169093029,-0.4621649396438793,-0.37764423329329905,0.011126301038139698,-0.1941136246779051,0.4315634940211261,-0.16827372890365372,-0.15104103470029784,-0.43437166861155396,-0.2464102621855137,0.4275691290790654,0.3390946635727418,0.21705551554469635,-0.3125838679404325,-0.23760239494985566,0.2575831780812051,0.18009622894541305,-0.05357000705677704,-0.04495589893819814,-0.266001523308638,-0.24806244289734924,-0.3387380620197711,0.4344066234350553,0.44100643729515676,0.030793512738580775,0.47305192874503266,0.09988021436241823,0.030668048253522873,-0.2136899445909124,0.12501836975990654,-0.1758446172839926,0.2792777194646041,0.09489719630201865,-0.27600366609867166,-0.47268883459716515,0.45826091444147765,-0.06697819304751107,-0.16695706444637137,0.025479769915138784,-0.0619367665086239,0.4662318195147859,-0.1678854821073591,-0.48021950017908843,0.2705190529673801,-0.1923859298749382,-0.3466505298659801,0.4301889602961978,-0.01223636096867542,0.3181771724923993,0.3435656054124355,-0.27539035681514623,-0.4613290165983287,-0.021372084076609177,0.04909253290051174,0.34962509873048697,-0.24303647138053142,-0.14560231201604912,0.0474238419487486,-0.2746484805849241,-0.21619077186220828,-0.06505677753310345,-0.07869151108371113,0.3781327163313516,0.2146529645509603,-0.010000264281275524,0.1437208545911269,0.48692985622729795,-0.09077652457303463,0.10070736958326859,-0.050447176187356384,0.32978560496138953,0.4176302530307662,-0.48098982332886653,-0.29426761407942403,-0.3794470050388722,-0.2276088096145752,0.3103847247133502,0.28700149058521807,-0.43456746785457256,0.4878328178984881,0.21116385267970283,0.08348022203260308,0.2785479864190594,-0.010980430802600916,0.297385536385698,-0.34360194688093837,0.3222282145281603,0.4353057427890284,0.11413087290091845,-0.009138500285118981,0.05748478252121565,0.3183421988324288,0.4636839199926533,0.2649560117235654,0.3133432112608035,0.40639043679221165,-0.09236904638098715,-0.3311671327576564,0.3307854493848605,-0.3244705974517652,-0.3472643210477296,-0.23120430836493666,-0.08796867020820942,0.40978377339046845,0.30785950067396317,-0.3434868930306366,0.439831361494037,0.42621135893729,-0.49710366190745325,0.42372960389913006,0.12462114511831845,0.015009457456295006,0.3978826209186287,-0.06286292815331422,-0.36952386711394064,-0.41188580203890146,0.44921854443593123,0.0358842444644818,0.02100178568535854,-0.42875943408081757,-0.2309041752384965,0.03979818831526838,-0.10860121356348011,0.18521714083542523,-0.1276950213789877,-0.20209252429910537,0.35600005810604074,-0.03296486801355502,0.36175403134692186,-0.0837329042715126,0.0041135276798639694,-0.16973581019208445,0.24772196270023583,0.07360795482852123,-0.41523189743124034,-0.37508524761949646,0.25198082204611316,-0.2648159657081861,-0.3580940336331695,0.47821900856675814,0.09703991736041417,0.06571209965819544,0.049521297911949085,-0.30108431122889606,0.20762941599253623,0.41487850612804766,-0.2237092938080346,0.20431177022147193,0.06748173016827994,-0.517416864844206,0.3329707176821179,-0.0024037378021296413,-0.29171303609878346,-0.4137821273092644,0.2676486920793067,0.3909647210389192,-0.1339613383332118,-0.21416258016337827,-0.23735845610423834,-0.4126441247261067,-0.25134693844095285,-0.49684978051916356,0.441922183609352,0.4092946562902399,0.22781841933081337,-0.32134220857699336,-0.2700642132691671,0.32891388889270734,-0.014907134479677868,-0.43654570307102236,0.25932346168778136,-0.27989670907062825,0.2620653056276937,-0.07635701209556536,0.20938398674642203,0.27922249395733645,-0.21116504048310866,-0.454273807025499,-0.5547024644217601,-0.5866815617467244,-0.1580915143267485,-0.32323213444887644,0.09253181496850317,-0.4128010044194841,-0.22533910628734402,0.26206002676323153,0.12551579652778952,-0.41584380993740233,0.1632018223261622,0.35890899687509115,-0.3744771022727123,-0.34302928365902086,-0.1934708443499774,-0.3093914327811247,-0.2870412968464561,-0.30482979363222035,0.22975781048675206,0.16880257013449448,0.22407219502098635,0.17633432416927988,0.5127703898759235,0.39612234329397206,-0.26449680427565947,0.26886206743532465,0.09271334444497907,-0.27961355300692575,-0.5568446070318437,-0.20898536647081137,-0.2850228936092819,-0.6010353466749683,-0.44472418733921987,-0.08796643851345445,-0.20205973118817624,-0.4068521357849391,-0.17162151237271303,0.1974322756731245,0.04102753962801734,-0.07878981460301858,-0.3208105783598566,-0.1737730130583786,0.01936598663645318,0.23187701592979282,-0.30515016274751317,0.24475831256861058,-0.2952480517956371,0.025904631607383634,0.10538776202879957,-0.31703348101444734,-0.3389245588845492,-0.35052593225660805,0.5245721570639446,0.15236286239133656,-0.10746507011403461,-0.40982664701111327,-0.5467631653729949,0.3565104671144533,0.31168079982867863,0.15056611124871094,0.021603106620188946,-0.3997756506595279,0.2125732922252672,0.03940067072478623,-0.5108481732890929,-0.2812828868489222,0.3553423379270307,-0.2037632903294552,-0.13127289199892817,0.18144515335869663,0.48085191945706457,-0.05987309928322693,-0.18847916789173932,-0.05989502903136823,-0.06277330314943731,-0.3718729660248166,0.5578487645120985,0.18967762262030755,-0.17570266053973524,-0.009416164363532287,0.310447604775533,-0.20834767714219932,-0.20198960682802392,0.5148026730213996,0.32607847660242456,-0.3652925125006575,-0.39313139582935097,0.3112748449697585,-0.07529151368633681,-0.013721079666026106,0.006257288408496286,-0.40941962738497717,0.35181347576882,-0.0677223455406937,0.39684652622497985,-0.31261705309852184,-0.18096398090355612,0.24952153737043117,0.011840066333216933,0.11039552599988489,0.4881541054571626,0.4961749731453228,-0.0038477218338670593,0.39804178151824304,0.5271103742761841,-0.3561601004750769,0.5451580577640421,0.17412537589264465,0.42210459948072504,0.47710108460818834,0.41081851585562784,-0.07221098980700309,0.508726173522359,-0.1894163149188011,0.1346496048230609,0.500328703135022,-0.3366000435933483,0.2734064642402169,-0.3118459684471368,-0.46031662924786015,-0.003884243081180865,-0.060195291891022754,0.03071418581490942,0.041031130786397654,0.20771726559540002,-0.017848783243891827,-0.08571495492134021,0.3193487060067272,0.295001457417594,-0.18349621696811902,-0.23166498131688582,0.23795558818978618,0.14251749128035518,0.3952896438742059,0.49324088878721795,0.09442601195753346,0.06110086556596917,0.28998313230645256,-0.1440269754015542,-0.31753188153069734,0.05672525810140178,0.38958858612691855,-0.12350728064157779,-0.2313232646287717,0.13836437769990811,0.417694044666142,0.44984953010268136,-0.47551307660560466,0.022892710215977788,0.2812911444999528,-0.3334854290463446,-0.36512258277730797,0.2999289044643278,0.024013424985631967,0.19127424595865306,-0.23874411656560565,-0.29325954810752863,-0.28952576980142813,0.26677858425284967,0.38826188732987943,0.36172525327588856,-0.11575428463519018,-0.1477646335756686,0.5702519151584636,0.4257135328723677,0.45309222532946125,0.21778372984358857,-0.058104083735874244,0.07525864765292024,-0.28125683122719575,0.3949689967141149,-0.02099506591764357,-0.2780562519221907,-0.36684158282673723,-0.3138330938525324,-0.3930012468628661,0.029139504166168576,0.08126567280146926,0.05486955030203739,-0.15510582803882525,-0.29905940183231927,0.3694368501363856,-0.3616179257530341,0.41404727733705526,0.3205704651148221,-0.11455779285295434,-0.40632199020807336,0.2929187888911419,0.3138307422877956,0.08409459175880342,0.00521292509370911,-0.17446511213603302,-0.27511823017423837,-0.27182456322325294,0.3556322101069656,0.24542180950902157,-0.07277333332651154,-0.4430214592938885,0.42646782202416195,-0.1803295795968492,0.22045281389478882,0.5106755896614258,-0.38011814502741326,0.013066828468793286,0.33621308989099336,-0.2450549379303682,-0.3097155482942534,-0.30223814675981625,-0.4890978638669034,0.3281710810049828,0.3288770389240308,0.3434928497307117,-0.0498594293872731,-0.4521134749546724,0.1912833059530561,0.4112300742010371,0.4444899830485894,0.07378494529122905,-0.10906908380290348,-0.4406816587492327,0.0783086532432558,-0.2567752929600179,-0.3549767981638423,-0.16079498512234053,-0.08868790622534083,-0.039964695221617184,-0.407112704804761,0.4154351884647858,0.007045670460007823,0.12954452003721434,-0.2542392821804137,0.3535075868717874,-0.18643860893252356,0.0666578282762981,0.07735416277729008,0.028064509884040263,-0.11014846289501809,0.2741043720921455,-0.39273271203145493,0.33405275813158686,0.11013656889770947,-0.42338236714327954,-0.16267879278290734,-0.42526430238876295,-0.3226417040011988,0.02289537165490633,-0.2383561106060894,0.45427982407628403,-0.001571690289581895,-0.31441663932903086,-0.11168636414248281,-0.2923087148887295,-0.2792164054397227,0.20150752806050576,-0.5045733601655907,0.1630596724627393,-0.2943323152380924,-0.16841662758583395,-0.3562836195846253,0.017644270792881035,0.14909109011615626,0.34947533954841775,-0.4901669597531485,-0.46321708502562886,-0.4481903977305695,-0.2710226731145648,-0.2619588583467213,0.3863451288401516,0.059327412477004016,-0.3864939509637648,0.03481455911935672,-0.304987993842303,0.32787348549420975,-0.07170415115786972,-0.48466426548731967,-0.4160164908681835,-0.4542725001792025,0.21669586994545453,-0.5344031100156236,0.14682536088650053,-0.50138730972688,0.2186459297894013,0.14633072966897215,-0.3440751018505149,-0.3491202622669333,-0.18932345166988632,-0.30596797749568727,-0.39005307409806045,0.3384070943829134,-0.05473562382960323,-0.33028950656097616,-0.388513214201664,-0.009131984186548469,-0.15721604830187275,0.056030078184624243,-0.4463736171118804,-0.18081093392870226,0.2713778116179665,-0.1888543333362117,0.4468611700814957,0.1658796051004537,-0.19073573477628888,0.1110320346191728,-0.46478550623437304,-0.5698926915716005,-0.35867609467002315,-0.4840709256281612,0.046251233752984434,-0.5341859494843193,-0.14080516701231194,0.3562536061710537,0.17111933402404553,0.4911733157125344,0.03267692546500835,-0.410753933158943,-0.40257836157874094,-0.13378516132106888,-0.4038927204306468,-0.09492067852134732,0.10416846533678475,0.43001237703296874,-0.4760705048955031,-0.08652347943793748,0.25515186316132743,-0.07222910035801376,-0.4012564456455461,-0.4890203511053716,0.38099914866447426,0.019328997979019418,-0.44895101518991287,0.4243792805018937,-0.34249980414018855,-0.39735859250284233,-0.3418701042074762,-0.09368174622692595,-0.009108412291983139,0.06941103164863874,0.018176542723919473,0.4187134744191617,0.34856297104325656,0.033554793185910044,-0.42661288319887036,0.45140483314939855,0.14090344704920799,0.21450288771418838,0.15110206423210182,-0.0461659192368465,-0.3920229246687147,0.06209709958648245,0.4257121567582211,-0.1834476324771874,0.23735906851155852,-0.2410796180233752,0.41738628391695365,0.29100407788399846,0.3230735567295652,0.039046082027315396,0.40510599179855383,0.04222526246329802,-0.3862027343986922,-0.40579351007108794,-0.47794241357197886,0.326135579492892,0.46678561793888523,0.01569138972847275,-0.42904814719402967,0.08433230058983532,0.23783014700137997,0.44867832678210345,0.4106781368406734,0.4262712253556303,0.44269915356544326,0.1613887194915309,0.5051496549862797,-0.2639952580031199,0.5395061016873669,0.3718807635118511,0.4269435978327986,0.09785756116042284,-0.1332967850572443,0.03910205367242745,-0.3372568973506897,0.3737038906400534,0.1855497356725481,0.15238317791011335,-0.23338642788753972,-0.47288462958639527,0.298337923129504,0.19617913212854884,0.113254284510183,-0.30090544075318054,-0.3408084459072057,0.005851129878316223,0.1357380689529644,0.1910901264664183,-0.05998155961526795,0.2927947918008197,-0.1920468171481839,0.30951781310416265,-0.3745888300570475,-0.2885518901059695,0.40618715399071964,0.41033054833148125,-0.2769057859341703,0.4503155198048926,-0.4152770094976628,0.27410138789467087,-0.32654788063392104,0.20055547381824268,-0.4752861999739322,0.46280551572438555,-0.45987405802125425,0.1665323911955307,0.15598225553983278,0.18111830652634858,-0.4104486770714038,-0.30142481387609454,-0.07256051860894971,-0.41087838723403747,0.4274827181010731,-0.20111149964001998,-0.023999765665651922,0.3795727199021976,-0.4380683762873364,-0.30693239076664647,0.002226937144298766,-0.20031422579879257,0.12266794821663429,0.04403094081012854,0.29487503261364023,-0.3527658469320682,0.032316352770904964,0.007819608856866693,-0.37433823672904587,0.2642883849690924,-0.1648394725314215,0.21322333566170704,-0.1785119035151517,-0.3533797830217578,0.2278257278690861,0.43501954355235983,-0.2299773072306559,0.30704313432168123,-0.2678180274864841,0.21856714395664303,0.05825257820786059,-0.5099462479558127,-0.485336043876142,-0.15942749708265264,-0.12206584958721875,-0.37433148487436024,0.21011667966127887,0.027822600422334334,-0.4950890315944178,-0.5448729318518939,0.01985261500718312,-0.20650696478235792,0.43295187677692937,-0.25978214427809027,0.2237564825844133,-0.08770307755870739,-0.19047775303845707,-0.1700712326715218,0.1901071954559479,0.18694018588234484,0.010405553656318123,0.2147698000030323,-0.39719429100726356,-0.255557891443335,0.07624026856870635,-0.3722000133897372,0.24309528821303084,-0.31123260001024666,-0.4895942125086691,0.34167797478406603,0.1909525956797353,0.29154708934901624,0.07198820510690518,-0.5043888015924509,-0.24433479359269328,-0.07234611002663405,0.19024578941225348,-0.03048301021749119,-0.09542812175725413,0.27480642595922034,-0.33957054409197124,-0.440992181080061,-0.46562746410937367,-0.15799939522942538,-0.09166968557181333,-0.4393416000258845,-0.29998188640804757,0.28335089241357847,-0.40998826254449555,-0.10530364809959436,0.4509520232282203,-0.06824945961984344,-0.4569662992129402,-0.4296749512486605,0.056849003566862476,0.09391077437286469,-0.25784111938722465,0.13019668188838898,0.2879681517120446,-0.603838513626637,-0.551792395925766,0.2524834462433111,0.43204329956922455,0.04822923573073811,-0.39394446514252945,-0.4623686676065446,0.03226828017896828,-0.343465097772958,-0.08082275662293087,0.17714532267886893,0.29428856857290686,-0.42123878573677165,0.32438259723806684,0.18545656741854322,-0.1789800304317688,0.15250040437788726,-0.09200257443538379,-0.3499133797856748,0.4116730185805458,0.1833475975953527,0.08491271794727442,0.2119980225821843,0.3289913648193714,-0.19314720179924255,0.4869733781772814,0.3774193621938943,-0.21853886984841037,-0.4823033601991814,-0.4982988365179476,-0.12288598648246113,0.3722849170456731,-0.10936067520848529,0.19630834008183057,-0.11736205344063205,-0.2377069772770037,-0.34765498906007686,0.26253444327034337,0.4047812345525452,0.09274836803393488,-0.31567483303803134,0.18667070049202417,-0.33166141984288267,-0.4824859033611548,-0.46961635559506687,0.48188461344061834,-0.40798060490085314,-0.0655333600051199,-0.2826104948441863,0.49558474381709033,-0.3515206654278065,0.28505468120291233,0.5010954248389506,0.14361725186638552,0.4763926175828554,-0.4440689649438726,0.15650653429946731,-0.039288318348163626,0.1264132895670135,0.3772081132120997,-0.015948616520607372,0.3743882356407813,-0.40154970749982444,-0.18985022587626704,0.2445498748455068,0.26639728477152025,-0.26237320524337643,0.4198170319911948,0.16031871777235784,0.09031729943346523,0.48803542200742434,-0.21822870806905392,-0.4433549795408206,-0.4782571111621444,-0.21412613960441085,-0.33696877138284403,0.30410092530763905,-0.058467923752741346,0.44474403980496435,0.4572530656692078,0.019530408568810345,0.3810451440543721,0.5036257621105134,0.38527734296439337,0.34132097970670877,0.5160872807851621,-0.22837957691215913,-0.23540570969525973,-0.10832126570642005,-0.16501577057712735,0.10465314275493763,0.4330926198960821,-0.4233768882867037,0.45577516498878945,-0.33527845811967866,-0.07839578546918266,0.40008373060319125,0.0788198652696851,0.12072781809467237,-0.39333388297070937,-0.29502952877312727,0.26989933730737825,0.4347793891801114,-0.31852944825674934,0.17389288632821193,0.005764043428071045,-0.11344303510848218,0.03052235238208864,0.4013987685865255,-0.28783609048751646,-0.3913964235334944,-0.3637093169075484,-0.3614765943757436,-0.4074584838926252,0.08196277773413939,0.27176802340509065,-0.4320114093882769,-0.4887306160873154,-0.18487689407706412,-0.131526542936532,0.17391097353671986,-0.1910929945976335,0.4098900914025386,0.19847275295553157,0.3845531507096651,-0.2104023915576615,0.48108343653557173,-0.08301120059698575,0.10349680688213203,0.02670215492146988,0.350080120771299,0.19013900711028708,-0.14508054600708842,-0.14734624360791992,-0.11987152791945876,-0.023946959012934643,0.056337622877876026,0.4535289098013522,0.2481622019246461,-0.0007957271836853685,-0.33086402296312234,0.32398946252742733,0.4837489381427702,0.03854723289596251,-0.4965063905753875,-0.42559640971248514,0.22294147364256645,0.4976686527992399,-0.43612604935627797,0.3761381875041865,-0.14511061893524935,-0.07358499981750721,0.44962249257465214,-0.4681542288450783,-0.3502652052477273,0.4826131264015129,-0.12292495838071693,0.14833342311370934,-0.015872039042523656,-0.024544922034061445,-0.34742911807835275,-0.2332531506225144,-0.007819303037962973,0.47483379124621794,-0.22259249796718944,-0.220834980730603,-0.28779062083471013,-0.32626599504585185,0.19480828413362505,-0.3326677441616347,-0.0874959178563431,-0.12430725665569367,0.47156659580950355,-0.4611436224950177,-0.30405967352659397,0.2096120931042361,-0.4936713126996818,-0.38096429870955506,-0.03744380222865318,-0.3162997539640141,0.012320169480366405,-0.4864205197458408,-0.48501534000513613,-0.21084840525526038,0.20281629666129253,-0.42968384652187575,-0.10989498633191552,0.489940255178861,0.3923632525406371,0.43436281071943267,0.4603247024563806,0.13539737435010527,0.3751612595130178,0.26445699095421954,0.21801244142942472,0.3737890768525923,0.36231003070572454,-0.19614213803200392,-0.03140600510122147,0.26388628916549656,-0.4038870329205829,0.06984193405597401,0.3900381883291847,0.2706820080671673,-0.3588952222493926,-0.22307585502566543,0.0655241155116147,0.4631560694665909,0.4505455039761424,-0.19304744049721934,0.14090860171435282,0.2321592768719415,-0.15574764755346437,0.48386748448336325,0.21013939931486392,-0.27278984604717005,0.037199155945326724,-0.2735526333056555,0.13606070385515268,0.3326772070726603,0.10436471104078603,0.466160016014056,0.32703517881273153,0.1874294146403425,-0.40568118785122437,0.03213726173485696,0.15178868318762298,0.4308244517291883,-0.38863515292595385,0.5196952105863276,-0.16341749853623727,0.2841914092914469,0.38807553542504514,-0.42657005057699454,-0.08529463617927388,0.23756386990388792,-0.42130015162606815,-0.13889397870094317,-0.050466874424624386,0.1945448482715193,-0.3168247879255425,-0.0424726322154102,0.0773919526912586,-0.28199274807559527,-0.4479319449372396,-0.17979363926597075,0.046645191935704725,-0.22196865109726682,0.021118536941960715,0.391193807481413,0.21917164265099964,0.024705833727858922,0.005130975307560096,0.5411951308808807,-0.2376462544508795,-0.123041427277249,-0.3713862401139173,0.42518032699300345,0.4093834288986001,0.09752765041101348,0.2589898183121164,0.2489701319267839,0.004804319079550581,-0.1668380151620264,0.17345280483059328,0.19887935071430435,0.10358773983971437,-0.4363577635436453,0.022948857519370147,-0.45989424512123445,-0.22862876025978401,-0.29311552179589817,0.34160336443295797,0.29157193577080576,-0.1305895735200631,-0.08855699500786726,0.39143986650715307,-0.09614272292212435,0.3652755173974969,0.18091569824488654,0.3444134644903942,0.002490440154482496,0.377154204753668,-0.2560299413069303,-0.43896730359115194,0.09381470109441062,0.29957922041579105,-0.2838372126411242,-0.12749061431470568,-0.4827390015646094,0.21594246015287635,0.031226665302784336,0.48392771323746636,0.11189110193749204,0.16740819820435482,-0.3151634296639996,0.44911557004939884,0.29754344378836217,0.4059711387018275,0.030874081925468477,-0.18151366299627233,0.10029941845971463,0.20592912655891,-0.025889676567471896,0.029497514241463015,0.3909628431425007,-0.20398572946013063,0.31088107203630483,0.33250402849176275,0.13074006836741783,0.2768286639194586,0.3213458842576772,0.3266173161130051,0.200475822287246,0.038030742346768835,0.0779528021364353,0.30601464663493444,-0.42633522297761345,-0.43071497682569804,-0.46076331555104316,0.18181411463415514,0.28043275913200927,0.12098021812480639,-0.08355364009178201,-0.08476100747581232,0.008306211161113318,0.13501962528011216,-0.23846760351893895,0.36040924462517415,0.40328820073654786,-0.16030430237177465,-0.3010203724601052,-0.38221996628907573,-0.17250258249309716,0.1875867326225413,-0.48718069500869415,-0.5007407030726768,-0.07317575452613781,-0.3414228155117471,-0.05743476763780655,-0.4869873835743862,-0.44022300333997993,-0.2157904600856348,0.23463758479579422,-0.44836206430070835,0.38813423554115584,0.24197890539277025,0.35547582344990664,-0.3390528638229828,0.20306388403416087,-0.15656913401572625,-0.06724856877925578,0.4226750701358387,-0.23526474842075282,0.18238241420805162,-0.044048165971453446,0.39442392474998916,-0.2596345698557078,0.08370723708902002,-0.19565376575707813,0.09728623393181055,-0.5540485456118509,0.3077735530631574,0.2356224909537965,-0.5476907929740942,0.3165032866213127,-0.5605139284007482,0.28167132564957115,0.08484656454457393,-0.016682347246113005,-0.1437362884226801,0.29180119988632747,0.15256345151446724,0.3567519829256419,-0.5497529720738783,-0.3118391893165379,-0.006610464343695105,0.2818549338425987,0.018653126981660245,0.45276422221226287,0.3594066319141571,0.2777840803719768,-0.4647766785028966,-0.01894419310890112,0.16462704692320942,-0.20629126826992902,0.12984126335102947,0.1367562951221351,-0.1190390971710032,-0.604489747140643,0.1533352116037155,-0.48669655315673677,-0.23788610005614205,0.25080597412132927,-0.04926764080053106,-0.26855746514672346,0.2854039021785654,-0.40797147051883903,-0.4032055014709098,-0.4793471155958772,0.266266663277127,0.2758162119981175,0.34483815919837946,0.14411783981515308,-0.01990139986944601,0.34111140824790986,-0.09026374516631047,0.1437783337448335,0.28733844943234366,-0.49243657788582196,0.19961818364498898,-0.34035787704085874,-0.21367022739259808,0.2690604158451582,-0.4743868634105795,-0.49931404228446147,-0.2757156522099226,-0.29657081121207035,0.3107079207678611,-0.3244942206363398,-0.022549289916784697,0.07980052536170468,-0.4717063349660106,0.07022050609775687,-0.16197234081145903,-0.2386112331165813,-0.1222334783488518,0.3547137529599114,-0.41682256003377055,0.3371625071611605,0.2949624274779254,-0.45857571671942476,0.03149410158920292,0.3408333674137693,0.03669194982494428,0.10312273314486808,-0.3431785523088888,0.18031779365936265,0.056977005905337795,0.28689770066069525,-0.1829498536756244,-0.19254200134598762,0.23310969475818472,-0.22243802091383738,-0.4807162831159005,-0.20030829577183912,-0.3983823225686539,-0.5332580923086683,-0.47827087283129655,0.21913584869123984,-0.13109675883064553,-0.5409986473353672,-0.4439940427417525,-0.45837131010141563,-0.1001417117016109,-0.4084753704698233,-0.5552733327712875,-0.15372449241292577,-0.5316131715115966,-0.3881720504388601,0.35380176800584884,0.45786201102189616,-0.3721049111737901,0.3359064484726947,-0.23116382969762037,-0.015882878909403576,-0.2672972322813406,0.36354640946351885,0.36399992211787235,0.15456533872564146,-0.32144962694255147,0.39979576755706964,0.13729588148058497,0.20455081495019364,0.17203741293194377,0.20076478354064894,0.2796096194335574,-0.08166214069703194,-0.020399005219415366,0.18148562054981252,0.26097902289579045,-0.3531304202347534,-0.34687207255280694,0.23965136832144981,-0.10985693152136186,-0.5186962214954197,0.08530309506454926,-0.3356734834455692,0.026823764689744477,0.11706216136072219,0.09504113101918688,-0.4948071748008037,0.37895389570209337,0.45407056854484495,-0.2840954346341563,-0.48100737663339077,-0.4892843639298932,-0.06894906403120367,0.2232997318078089,-0.1303694408166868,-0.2583923941546081,0.1414784508451727,0.09334141434993146,-0.039013279510624096,-0.23404900221099664,-0.48537092459810294,-0.8097462966951319,-0.40932676670099793,-0.08410375337792661,-0.18677846391943095,-0.3138222860888778,-0.4122870644903335,-0.14231234618397617,-0.366453074414031,0.37241722782061054,-0.4661341080047567,0.11484404730529489,0.364848728650736,-0.3613167729162221,-0.4023976312423274,-0.46584375657637667,-0.06001916941717994,0.15381617365067965,0.2773328860631794,0.34557017524685224,0.20873621995628236,0.01619149313624088,-0.35679381682067707,0.1207725963603521,-0.06773281612565779,0.2649758848304118,-0.35431784246607273,-0.3140790105087993,-0.5400645076375967,-0.18148963192439424,-0.40901241152495005,-0.0098059845426012,-0.0327702115301611,0.4341088099390346,-0.041552160139515786,0.21047239475622462,0.28211084453463936,0.049830309629291684,0.008770242296894706,0.030244335999482223,-0.28708174280519605,0.38245111014290967,-0.41988849176294996,-0.3812055350500755,-0.1912971969140911,-0.4209847691941966,-0.08209106678308552,-0.37485834408137275,0.09176968818863013,-0.3931113297293872,0.3481434683612859,0.46650401295842775,0.27653125441248577,0.4273264418109999,0.04303795701439638,0.3235437561376301,0.2063380453575692,0.19714643798579773,0.32609432809330235,0.4284677929954946,-0.19600663525921425,-0.09127418071243448,0.25883974641277113,0.36508279524296877,0.3115469040149569,0.29253846321079224,-0.3113907723608987,0.14683693112664928,0.42378584815592724,0.4740981435803566,0.23142802447587374,0.4108840464025887,0.37630892431295737,0.1966839296449533,-0.45626730937580834,0.4157209268937361,0.3266360929302921,0.19631521256373513,0.18334353308719706,-0.35633492828460306,-0.3961134758694216,0.15644610706162432,-0.42487501382531606,-0.4113193288427377,-0.539748872080825,-0.39591561198596886,0.07202493642217674,-0.38545682137583076,-0.08416629983367475,0.4073729542727904,-0.3796205947657421,0.4153970145494935,-0.20341610298966598,-0.08627533058177606,-0.24483162956956883,0.09989295434731782,0.37274549693508185,-0.0039182270012629245,0.28184618070478873,-0.1512927900020219,0.26477255674354705,0.2577861202457575,-0.24215887754316892,-0.34528452777154817,-0.2448976548168671,0.12953210960136724,0.27949465472469376,0.1911652837927076,-0.053903700699134846,0.25826693448092597,0.27906825358855736,-0.5243255569653384,-0.5002360227644476,-0.055606062462259236,-0.5076637578728133,-0.5486326137359241,0.09935875616276005,0.021374237684139978,-0.23744843382906067,0.09663408492773473,0.4835920472866159,0.22749498189795114,0.3247747797800249,-0.21943128501634135,0.39273962194880674,0.025345721048387743,0.3857953928391028,-0.36047354020372513,0.4443739091680983,0.39636581792304987,-0.2767617323276446,-0.19494976751783777,0.006819755023614969,-0.1407949571905805,-0.22257069320914838,0.11824314797022813,0.144059545810176,0.4012070846118185,-0.1740877863392557,-0.24315108288193102,-0.4428725073827522,-0.06264635080517077,-0.2316570580599481,-0.29193783153136843,-0.40843495490319837,-0.31049027430127096,0.02185410617373375,-0.08356615337493961,0.3946331615162483,-0.3305099314340152,0.24152649292008768,0.042580877239236155,0.49565723800346834,0.06328978630572364,-0.4847336610212848,-0.007035842515615075,0.013281504188614554,0.5026802718522779,0.015845691450753537,-0.050816675752365315,0.3508401633966791,-0.1773065621377878,0.12310657345507463,-0.32949540340136113,-0.19278058760893824,-0.1547469179312706,0.24945413762770857,0.48803669544813627,-0.027645394989152174,-0.0751075640360967,-0.2943207011841565,-0.42154977112062597,-0.18165282151155474,-0.3137636114651773,-0.022925414186118372,0.347535771195964,-0.4516514926631274,0.39971317956531743,-0.43510541972052685,0.4860482240622094,-0.22754983805587745,-0.16245152113511163,-0.020545351050070826,0.25811555915384304,-0.06216201659933507,0.5028511751957815,-0.260782319181394,-0.2682655535695998,0.5361642622902147,0.20139866735824116,-0.3017552973448787,-0.020471828954451276,-0.37128711081534116,0.26785676846707973,-0.3964105128573398,0.19780499766347184,0.10635729291462213,-0.3377333982722247,-0.2061750362261195,-0.14298192569215096,0.25664773498658394,0.4181564362860313,-0.14883798173782165,0.465623121352208,-0.4898003415808086,-0.1345617369399949,-0.11499342978668924,0.08351477618258017,0.026120969230085618,0.26865294107266796,-0.09692842014307368,-0.15720873615906383,-0.33917588632372003,0.05083333386496427,0.08374862975767772,0.45396046813831553,0.5382547936561647,0.4149194889605834,0.2897958668089031,-0.04537451746108586,0.3077004680087486,0.31006317746085116,-0.3483403916609603,-0.3519125535660401,0.340328570406914,-0.26296297597858176,-0.2045659641156,0.2796807912044508,-0.05869859702308635,0.4345874516442924,0.24617604097954512,-0.18482074592216546,-0.48155131425961717,-0.46349888834529,-0.39098443084376117,0.3241280123829787,0.012884822837760563,-0.36724851232723665,0.4757528069100898,0.4898248022682551,-0.2775070116099416,-0.4925366053161553,0.007779095396635125,-0.38887722158809623,-0.4753582136505107,0.2706585576018873,-0.3146662861960712,0.1156120417968971,-0.3642909146859518,-0.039422673896635674,0.34600265251432155,-0.5346363865970173,-0.01513792670395003,0.28915518037597526,-0.36926001601291775,0.052006366990771866,-0.45385450236635505,-0.1515023429730765,-0.42637643153606364,0.17358108917234819,0.14878397238019753,-0.3045617342767941,-0.24215561578764525,-0.438465583035103,-0.12962724208957654,-0.31518996950254563,-0.11347177119245011,0.20636804491685345,-0.030860136664527443,-0.008647627737329262,0.42695694491926756,0.2875521202778672,-0.17567910990861443,0.17373734357432635,0.20007284640871922,-0.1649738137635766,0.010830120848437598,0.09686560634760091,-8.136633882414201e-05,-0.3103535601891649,-0.1707156962823631,0.05605945080584725,-0.11754748595400559,0.175768416297057,0.07564577626602949,-0.4741154658561085,0.04911564910982831,-0.09256540537651818,-0.4764065254201045,0.2461881193875794,-0.15756894284298145,0.4857990777763491,-0.3833641331796174,0.47088853048434154,-0.20752652749616207,0.3786449762553401,0.48056287958023675,-0.4333412763960633,0.12471067954094739,-0.3310410381514094,0.4198936204106189,-0.038548220043236874,-0.03265360447784463,0.3178284523982941,0.10261967260482864,-0.44376189628067414,-0.44173633614472857,0.024859043008292357,0.17634689291617764,0.1735744752704666,-0.43921088334008795,-0.5442873880333335,0.2815099870207036,0.13372935278227083,-0.2586442224678694,0.06659898437229612,-0.2564327884474804,-0.19990965110447276,0.22163308658236758,-0.4747931423605998,0.288368758500273,-0.4868734583510278,0.0024465557209450983,-0.4028417742259569,0.18345816891181377,-0.4222430449867648,-0.13468918212781036,-0.20347939809773374,-0.3383513933183358,-0.5177558252930506,0.324923862856236,0.38072060636908955,-0.36297460181644564,0.13697954292348105,0.31575296017098026,0.03620311037017313,-0.29582273029418454,0.08061506419634641,-0.4697281420702289,0.37732234631507894,-0.40621865175397365,0.2884622712017432,-0.4873288758810244,-0.32600315878434033,0.25432476296887185,0.35064120102086427,-0.2999768243994894,0.39798678608247917,-0.09583969807276471,0.12467318013794193,-0.24701615016559741,-0.42479053162980995,-0.27398756085515996,0.11840762830678064,0.11594411011970418,-0.48286436264457927,0.36083703016715746,-0.23796561209996245,-0.12725642174083113,-0.49733680800985686,-0.10135389222722982,0.13350342229668696,0.46666265085380626,-0.2619971653030575,0.42805850695735914,0.1727786818314654,0.02593496697424152,0.422274925835377,0.31190019666386065,-0.1408573443227872,0.019896796286577142,-0.10345043264740848,-0.09244566653415315,0.25608947372120183,0.4221170353072231,0.3740112101842328,0.4920232218534235,-0.3340767183967749,-0.378194208415072,0.26540887033791816,-0.44957307651706435,0.03947615883857669,0.36585288273297345,0.09225246368746465,-0.3298758671267318,0.47449823732244895,-0.26193255992158165,-0.24501731222375697,0.4100068822824512,0.2751887873393055,-0.3331733389284312,-0.3645625250903543,-0.27377634228219366,0.24234871739009503,-0.4283619881725968,0.4681284330523984,-0.2207275737510978,-0.4721800809435279,-0.3800920666021564,-0.411532155531812,0.0013278982699446824,0.038772198890844524,0.09610918086775788,0.32108221889174837,-0.041943134402637194,0.18391876608287272,-0.47698998919230784,-0.48779753015307004,-0.14296140278812353,0.11082026634830133,-0.398541664497552,-0.22193488107684756,0.22172849529012773,0.03977177838742807,-0.20158411738875315,0.005752044742279305,0.25401049085274896,-0.2533815161983457,-0.3489243433237186,-0.11750366824059211,-0.09159784518498548,0.41542920200036837,-0.1615932273054368,-0.27994384434359443,0.03902942903409945,0.28031770584257654,0.23899193799733442,0.4991668065304191,0.49941767129622416,0.18766052585854398,-0.29835112945707476,-0.26185814350583614,0.1723576967565712,-0.2536687471885617,-0.40217569043226864,-0.04817849983314526,-0.486156216628439,-0.4280660589992882,0.4889325599040689,-0.19757563906345585,-0.24948838348797234,-0.1438108653176717,-0.18920813284087984,-0.33047893269623435,-0.019785665702144115,-0.3489990449434496,0.13599908357034246,-0.4523722247289551,-0.18065808351955495,0.41092113679467684,0.057176937237076404,0.06248452635547575,0.36073839705096594,-0.4576865875561058,0.18225049529460813,0.41044622478289094,0.2551103608488371,-0.058147977299390585,-0.3072916578329363,0.29764293072703285,-0.11326971980854361,0.4326275610277598,0.31839757543823577,-0.2388354762977486,0.33288271588539387,0.28866846692677556,-0.3611107055675249,0.2749477663392197,-0.2847492643176308,-0.21756647214397398,-0.18115868947312647,0.054602979272385596,0.3226102935436753,-0.33413637220043485,0.14061885083149875,0.03383312545796113,-0.23029732149898058,0.038461056110430596,-0.25451536471113523,-0.46862928184828617,-0.3581793796885626,-0.31328132185896973,0.18320396387396543,0.04613007635639348,0.35803814175452187,0.46982750663085615,-0.030799927867924928,-0.49168970279662755,0.15588843269127461,0.4379925624561821,-0.48513844861218614,0.30716394686794,0.28782100913071895,0.27066976659136643,0.15836515530650908,-0.3782303289966582,0.22658224656749856,-0.1786465042476703,-0.35390962254723746,-0.46682012159370545,-0.19632190081883721,0.3402365359952515,0.17220949589832654,0.1274688306701631,-0.29187183334763206,0.390832705844122,0.13491156488460307,-0.44759186474418666,0.06763950248369226,-0.030858493375701564,0.026496929261110764,-0.3856233177057386,-0.44698955214785424,0.085907985263004,-0.18771447989604856,0.16247049844242825,0.22113152630131339,-0.0038008320655492644,-0.4135590753188143,-0.3245830470187077,-0.05466083736137517,0.1493614001172423,-0.01730521390901074,0.3053257357191292,0.3160125758607983,-0.07234477660957603,-0.3840332502625614,-0.19528814000638534,0.22661915178523506,0.26910057963368605,-0.20432333867543676,0.04435750866992535,0.09130632721743116,-0.5564629401480693,-0.02152819445852257,0.07434522506674623,-0.5707367972300881,-0.3690134852491928,0.19058303043812116,0.33259547271923495,-0.26936345339745016,-0.28042739732352895,0.15173703175998715,0.09688680192753357,0.48573455392379133,0.1993302921130978,0.301627553555184,-0.1488918314040264,0.20535165666902722,-0.100414503290491,-0.44875516777603464,-0.1961086224760904,0.4945842585756151,-0.09805336822238363,-0.009367530945272828,-0.30406391693530305,-0.11982593746048976,0.22410681093853813,0.07611427376346853,-0.18275176564267384,0.32182828261339563,-0.06501742456619118,-0.06360804795417016,0.3577646399555951,0.44237592096803124,-0.011997276451729223,-0.44104984969792066,-0.08077847007974755,-0.3602096802294312,0.5480815651993316,0.34059696290498975,-0.3131473647374876,0.20287714525578637,0.2587918748602961,-0.17416052593674336,-0.4034854794220063,0.2984650675336092,-0.11927254855464606,0.16689477761183583,0.48380737519449396,0.1056087845986766,0.5644503079228168,0.4086882246589179,0.5742158123343701,0.1064320873983787,-0.23423522233182786,0.3664318456956739,-0.07058954987569113,0.07348989741322698,-0.15196824523162134,-0.39023535002588244,-0.22193770173148614,-0.008983824009239768,0.045088654528454966,0.45225030055548193,-0.11585002580210789,0.3996049645194412,-0.20676777007934385,0.2073645463925319,0.340214483005593,-0.058980575836006,-0.16598854848300737,0.35826038966224427,0.340878643402539,0.3966076927527984,0.36012195141884884,-0.2227856527971571,0.2810131575304485,-0.09865551444928283,-0.373583434137461,0.23331235841801298,0.5410622219952548,0.5376845683598098,-0.1842483139332129,0.5277731113743376,0.2961108636706992,0.17167931557566127,-0.13215349577197813,-0.35540557457397226,-0.39839694453287383,0.24490820261417828,-0.11311550714742058,0.6224309571061691,0.4597119336192459,0.46115753793562814,0.5025821222329878,-0.11488667834474336,0.4435653844482344,0.39700489583143994,-0.06712939590420748,0.06447673135205778,-0.13351797175834387,-0.3426829754024182,-0.004553104003089825,-0.30502266476496903,0.4992794953183889,-0.17003367723861437,0.32337651362520803,0.00941091188853771,0.27191241389397725,-0.05502510353447412,0.06498628192962728,0.22182521919640147,0.10519981206390287,-0.44558424352075215,0.29667144341895907,0.13544343963835492,0.21114270702040847,-0.2339688609432138,0.24765607879631535,-0.042930702889913186,0.12681360645701278,0.05868717051845309,0.21796809082712915,-0.33003620966377395,-0.22322161134807153,-0.45153263627917833,0.4815034854601452,-0.09401935419901496,0.37121678004754816,0.1633406945911806,0.29978177667597317,0.022357740261986007,-0.26876232282989054,0.12348266997363294,